#include <math.h> 
 #include <string.h>

#include "/home/shubham/keras2c-master/include/k2c_tensor_include1.h"
#define A_SIZE 128
#define B_SIZE 5



void k2c_dense(float* output, size_t* output_ndim, size_t* output_numel, size_t* output_shape,
		const float* input,const size_t* input_ndim,const size_t* input_numel,const size_t* input_shape,
		float* kernel, size_t* kernel_ndim, size_t* kernel_numel, size_t* kernel_shape,
		const float* bias,const size_t* bias_ndim,const size_t* bias_numel,const size_t* bias_shape,int activation,  float * fwork)
{

    if (*input_ndim <=2) {
        size_t outrows;

        if (*input_ndim>1) {
            outrows = input_shape[0];
        }
        else {
            outrows = 1;
        }
        const size_t outcols = kernel_shape[1];
        const size_t innerdim = kernel_shape[0];
        const size_t outsize = outrows*outcols;

        // Define tile size
        const size_t tile_size = 8;

        for (size_t p = 0; p < outsize; p += tile_size) {
            #pragma HLS PIPELINE
            // Initialize the output array within the tile
            for (size_t i = 0; i < tile_size; ++i) {
                output[p + i] = 0.0f;
            }
        }


		for (size_t i = 0; i < outrows; ++i) {
		    const size_t outrowidx = i * outcols;
		    const size_t inneridx = i * innerdim;

		    // Loop unrolling and pipeline
		    for (size_t j = 0; j < outcols; j += 8) {
		        #pragma HLS PIPELINE II=1
		        float sum[8] = {0}; // Accumulate results for 8 columns

		        // Unroll and pipeline inner loop
		        for (size_t k = 0; k < innerdim; ++k) {
		            float a_val = input[inneridx + k]; // Load A value once
		            #pragma HLS UNROLL factor=8
		            for (size_t jj = 0; jj < 8; ++jj) {
		                sum[jj] += a_val * kernel[k * outcols + j + jj]; // Accumulate result
		            }
		        }

		        // Add bias and store results
		        for (size_t jj = 0; jj < 8; ++jj) {
		        	size_t jjVar = j + jj;
		            output[outrowidx + jjVar] = sum[jj] + bias[jjVar];
		        }
		    }
		}

		if(activation==2)
		{
			for (size_t i=0; i < outsize; ++i) {
				#pragma HLS UNROLL //factor=8
        		if (output[i] <= 0.0f) {
            		output[i] = 0.0f;
				}
			}
		}
		else if(activation==6)
		{
			size_t i;

			float xmax = output[0];
			float sum = 0;
			for (i=0; i < outsize; ++i) {
				#pragma HLS UNROLL //factor=8
				if (output[i]>xmax) {
					xmax = output[i];
				}
			}

			for (i=0; i < outsize; ++i) {
				#pragma HLS UNROLL //factor=8
				output[i] = expf(output[i]-xmax);
			}

			for (i=0; i < outsize; ++i) {
				#pragma HLS UNROLL //factor=8
				sum += output[i];
			}

			sum = 1.0f/sum;
			for (i=0; i < outsize; ++i) {
				#pragma HLS UNROLL //factor=8
				output[i] = output[i]*sum;
			}
		}
    }

}

static float dense_11_output_array[32] = {0};
static float dense_8_kernel_array[8192] = {
-1.64477140e-01f,+3.15268226e-02f,+1.02079257e-01f,-7.14214742e-02f,+2.44537514e-04f,
+1.56022713e-01f,+1.64488360e-01f,+1.92621633e-01f,+1.81618631e-01f,+1.06895283e-01f,
+1.45917879e-02f,+1.32679744e-02f,-1.03640430e-01f,+1.86539009e-01f,+1.31750509e-01f,
-5.99011257e-02f,-2.26962306e-02f,-9.92462561e-02f,+2.78976224e-02f,-1.05124019e-01f,
+2.23686993e-02f,-2.53109410e-02f,+8.02864879e-02f,+1.77109852e-01f,+1.48499981e-01f,
-1.88726425e-01f,-5.60112037e-02f,-8.90485495e-02f,+3.91937345e-02f,+6.10787086e-02f,
+1.09133080e-01f,+1.61373764e-02f,-1.89207464e-01f,+1.17882773e-01f,-6.18625432e-02f,
-9.40926522e-02f,+1.74428910e-01f,+1.76102474e-01f,+3.11453789e-02f,-1.22628585e-01f,
-6.67493790e-02f,-1.85357347e-01f,+2.10077465e-02f,+2.14490101e-01f,-9.62464735e-02f,
-1.50247663e-01f,-1.15654118e-01f,-7.00237304e-02f,+1.48382246e-01f,+1.95539445e-02f,
+1.36962086e-02f,+1.13382600e-01f,+1.66984692e-01f,+4.37977463e-02f,+5.74015230e-02f,
+1.78995326e-01f,+1.45381629e-01f,-2.06307963e-01f,-1.80387959e-01f,+9.15875882e-02f,
-1.59099057e-01f,-2.00385138e-01f,+1.41141698e-01f,+6.99702948e-02f,+8.72462168e-02f,
-1.69249818e-01f,-1.92654312e-01f,+3.64741646e-02f,-1.99974906e-02f,+2.08897442e-02f,
-4.41713594e-02f,+6.71874955e-02f,-2.44198297e-03f,-1.95938408e-01f,+1.38590127e-01f,
-8.79840460e-03f,-1.38569251e-01f,+1.06562562e-01f,+1.92563280e-01f,-9.62612703e-02f,
-9.67924446e-02f,+9.67504010e-02f,-3.37083451e-02f,+9.30260271e-02f,-1.33100644e-01f,
-1.53227314e-01f,-2.99624354e-02f,+9.13409516e-02f,+1.00018635e-01f,-1.36430413e-01f,
-1.19261175e-01f,-3.34837586e-02f,-1.61358118e-02f,-7.15811104e-02f,-1.49940565e-01f,
+1.50814340e-01f,+1.99023277e-01f,-8.40929244e-03f,-1.53304681e-01f,+1.22530982e-01f,
+1.43724650e-01f,-1.78289324e-01f,-1.30228937e-01f,-1.92413628e-02f,-1.34448633e-01f,
-1.23420224e-01f,-1.77138925e-01f,+4.80638593e-02f,-3.46203297e-02f,+1.09871261e-01f,
+8.11321512e-02f,+1.14987209e-01f,+1.17672265e-01f,-2.25343779e-01f,-4.29862440e-02f,
+9.49186608e-02f,-1.71344087e-01f,+1.10175833e-01f,+5.17543703e-02f,-7.08989576e-02f,
-1.12006590e-01f,-7.18190670e-02f,-7.89675117e-02f,+2.08542868e-02f,+2.10995525e-01f,
+9.58802179e-02f,+4.03789096e-02f,-8.61670673e-02f,-1.41045421e-01f,-1.40345424e-01f,
+1.55530255e-02f,-3.30864191e-02f,-5.55931777e-02f,+8.52849931e-02f,+2.30739638e-01f,
-1.69047177e-01f,-1.48130372e-01f,-9.30138081e-02f,+5.22857681e-02f,-1.41333967e-01f,
-1.08509287e-01f,+1.40049040e-01f,-6.83349743e-02f,+1.14398465e-01f,+1.24746561e-01f,
-6.12595081e-02f,+2.40919571e-02f,-8.62068981e-02f,+5.22051603e-02f,+2.36384019e-01f,
-6.70684874e-02f,-1.11334048e-01f,-7.07929134e-02f,-1.68462098e-02f,-1.08902238e-01f,
-8.48432928e-02f,-4.75684833e-03f,-5.91884740e-02f,-1.58052340e-01f,+1.39948532e-01f,
+5.52286692e-02f,+7.16318935e-02f,+1.03393063e-01f,-6.77046180e-03f,+1.80552632e-01f,
+5.01219369e-02f,+1.00630477e-01f,-2.02698484e-01f,+8.34219307e-02f,+4.13422063e-02f,
-1.92817330e-01f,+1.34446484e-03f,-8.35318342e-02f,+1.52526096e-01f,+1.91396385e-01f,
-1.36341512e-01f,+1.66146204e-01f,-6.72793062e-03f,+2.02826247e-01f,-1.31679758e-01f,
+4.60806191e-02f,+5.40806013e-06f,-1.11241288e-01f,+1.07746376e-02f,+2.15505823e-01f,
-1.12068035e-01f,+9.27804038e-02f,+7.93431550e-02f,+7.08059222e-02f,+6.37791306e-02f,
+2.05548778e-01f,+1.60266221e-01f,-1.84921011e-01f,+6.12011319e-03f,+4.59027551e-02f,
-7.33209774e-03f,+1.49602577e-01f,-1.52889371e-01f,+2.39051469e-02f,+3.46389152e-02f,
-1.11015867e-02f,-6.80812448e-02f,+1.03833258e-01f,-1.73951499e-02f,+1.36000961e-01f,
+3.47556286e-02f,+1.57955930e-01f,-4.36167382e-02f,+9.59135778e-03f,+3.42331938e-02f,
+1.38569891e-01f,+3.21542546e-02f,-1.44714326e-01f,+1.98545054e-01f,-5.34888357e-02f,
+1.36817088e-02f,-2.62481160e-02f,+1.66543782e-01f,+1.21182494e-01f,+8.97380337e-02f,
-1.56278923e-01f,-1.31154269e-01f,+1.44377872e-02f,+1.69232100e-01f,+5.20974100e-02f,
+7.11064637e-02f,+7.81387314e-02f,-1.95605293e-01f,-1.56732425e-01f,+1.34925708e-01f,
-1.86671317e-01f,-1.22043490e-03f,+9.64713022e-02f,-1.48165092e-01f,+7.25448057e-02f,
+1.59609035e-01f,+1.65638924e-01f,+1.35130093e-01f,-1.49266824e-01f,-7.28749707e-02f,
-1.40826404e-01f,+1.51083276e-01f,+1.50645763e-01f,-1.52950913e-01f,+2.26650909e-02f,
-6.20840192e-02f,-1.37434125e-01f,-1.66112110e-01f,+1.45583630e-01f,+1.77501515e-02f,
+1.60894305e-01f,+1.93832651e-01f,+1.19687825e-01f,-6.23255484e-02f,+2.53773350e-02f,
+9.79152620e-02f,+2.38023102e-02f,-1.45604718e-05f,-1.18292518e-01f,+1.16185866e-01f,
-8.55520293e-02f,+6.50282949e-02f,-2.90050358e-02f,+4.77538817e-02f,+1.80105805e-01f,
-1.38057157e-01f,+3.32115218e-02f,+1.49480313e-01f,+1.67513862e-01f,+1.13659456e-01f,
-1.19677246e-01f,-4.31295522e-02f,+1.38949966e-02f,+5.84576502e-02f,+1.20095022e-01f,
+1.64629951e-01f,-1.05508946e-01f,-1.20578624e-01f,+1.23624012e-01f,+1.63332243e-02f,
+9.22722965e-02f,-1.27580270e-01f,+1.47703467e-02f,-2.13819160e-03f,-1.79849844e-02f,
+2.18301818e-01f,+1.94324702e-01f,+2.05587059e-01f,+1.17864922e-01f,+1.56441733e-01f,
-8.05254281e-02f,-1.04292333e-01f,+9.51292589e-02f,+1.20891288e-01f,-1.14301592e-01f,
+1.72013804e-01f,-1.15954997e-02f,-1.81206852e-01f,-2.08694622e-01f,-1.49813190e-01f,
-1.29148737e-01f,-1.46685272e-01f,-1.85017779e-01f,-1.77275568e-01f,-1.15334481e-01f,
+1.35095626e-01f,+9.83493701e-02f,+3.30664217e-02f,+5.03133722e-02f,+7.49513805e-02f,
+2.21785188e-01f,+1.40483946e-01f,+6.40898719e-02f,-1.44349948e-01f,-4.19193730e-02f,
+1.07263036e-01f,-7.39333257e-02f,+1.99139088e-01f,-9.80883837e-02f,-6.58823550e-02f,
-1.70095250e-01f,-5.77324778e-02f,-1.20769076e-01f,-1.38938464e-02f,-1.82445884e-01f,
-7.40680397e-02f,-9.31318030e-02f,-1.03695393e-02f,-1.12441264e-01f,-7.55329356e-02f,
+1.65866628e-01f,-7.73864686e-02f,+1.30000621e-01f,-2.07470924e-01f,+2.35946342e-01f,
-7.34152049e-02f,-1.40659988e-01f,-7.75306001e-02f,-1.46690190e-01f,-1.15701463e-02f,
-1.04602352e-01f,-9.43159387e-02f,+9.08111185e-02f,-1.76867828e-01f,-1.14996351e-01f,
+1.65003926e-01f,-1.13767572e-01f,-9.75570679e-02f,-7.34423921e-02f,-3.36555205e-02f,
+1.25372753e-01f,+1.64339766e-01f,-1.13907412e-01f,+1.84143543e-01f,-1.54850110e-01f,
-1.92551047e-01f,-3.60443979e-03f,+1.13559015e-01f,+1.29253373e-01f,-1.93476658e-02f,
+2.17197761e-01f,+1.68927506e-01f,+1.15709357e-01f,-8.08444992e-02f,-1.21582083e-01f,
+2.04318538e-01f,-1.66397206e-02f,-1.40939757e-01f,-1.17284827e-01f,-8.28571096e-02f,
-1.01119265e-01f,+7.17558200e-03f,+1.60441980e-01f,+1.78675540e-02f,-1.47305459e-01f,
-1.88855574e-01f,+1.12247653e-01f,-1.89429089e-01f,+9.60781723e-02f,+1.20143816e-02f,
-2.22873949e-02f,-6.87131435e-02f,-1.46039099e-01f,-6.24430068e-02f,-2.85847075e-02f,
+1.87263228e-02f,-1.68417200e-01f,-4.93835732e-02f,+1.39937121e-02f,-1.42481774e-01f,
+2.56996810e-01f,+1.62126079e-01f,-1.34478047e-01f,+7.13582784e-02f,-9.88267958e-02f,
+2.21087933e-01f,+2.14584947e-01f,+2.48821557e-01f,+6.19763210e-02f,-1.26200527e-01f,
+1.47674918e-01f,+1.42235368e-01f,+5.10006435e-02f,-1.07782945e-01f,+7.12002814e-03f,
+6.49119914e-02f,-1.94698572e-02f,-5.03330454e-02f,-8.29899907e-02f,-1.42502666e-01f,
+5.50484210e-02f,-1.66491970e-01f,-1.53183579e-01f,-1.23290077e-01f,-9.28947255e-02f,
-1.33563086e-01f,+1.46679401e-01f,-1.44279540e-01f,+1.71031103e-01f,+1.83453411e-02f,
+9.65541750e-02f,-9.60876718e-02f,-5.35066873e-02f,+1.39876232e-01f,-4.59404141e-02f,
-2.34559819e-01f,-2.33906478e-01f,-1.66438907e-01f,+4.90944311e-02f,-1.89636126e-01f,
-4.43918444e-02f,+9.57365856e-02f,-1.10372327e-01f,+1.11238897e-01f,+1.60537735e-01f,
+1.78884313e-01f,+2.20005721e-01f,+6.11330308e-02f,-1.04763463e-01f,+1.42989188e-01f,
-9.89258103e-03f,+1.58810019e-01f,-5.42729422e-02f,-1.93796903e-01f,-1.92173600e-01f,
-1.45044222e-01f,-1.18016385e-01f,+6.40679225e-02f,-1.35010049e-01f,+1.10108674e-01f,
+2.15681940e-01f,+1.65946469e-01f,+8.22637156e-02f,-5.01520187e-02f,-1.51849747e-01f,
-5.50131947e-02f,-6.69237673e-02f,-9.63922888e-02f,-1.72045454e-02f,-5.55480178e-03f,
+2.21788853e-01f,+7.20030442e-02f,+7.74970353e-02f,-1.11949615e-01f,-1.19853057e-01f,
+2.10613891e-01f,-5.82464971e-02f,+1.33905262e-01f,+1.37255177e-01f,-8.22951198e-02f,
+2.38541812e-02f,+9.37896669e-02f,-1.70001253e-01f,-1.22171693e-01f,-2.78862901e-02f,
-7.29804412e-02f,-6.46886975e-02f,-7.28378221e-02f,+2.20745862e-01f,-1.32900015e-01f,
+2.41031840e-01f,+4.52859811e-02f,-2.00707868e-01f,+8.88391584e-02f,-5.19746765e-02f,
+2.19312578e-01f,-1.57400683e-01f,-1.72009766e-01f,-1.78626508e-01f,-6.01160005e-02f,
+1.08134545e-01f,+7.31863379e-02f,+7.25013539e-02f,-1.48876682e-01f,+1.18481033e-01f,
-1.44494265e-01f,+1.02791548e-01f,+2.40355819e-01f,-3.89841758e-02f,+8.55304822e-02f,
+6.41648620e-02f,-2.17543878e-02f,+2.08729252e-01f,+2.56002814e-01f,+6.29181415e-02f,
+9.59209874e-02f,+5.59868179e-02f,-8.63208249e-02f,+2.13611824e-03f,+5.54375574e-02f,
+5.03532961e-02f,+2.07923681e-01f,+9.63961035e-02f,-1.88785672e-01f,-1.02957211e-01f,
-4.63955626e-02f,+1.47497728e-02f,+6.99195117e-02f,-1.24142155e-01f,+7.30605423e-02f,
+5.74145094e-02f,-5.24283201e-02f,+1.83119580e-01f,-6.19153958e-03f,+5.21153817e-03f,
-1.49465263e-01f,-6.28219023e-02f,-3.36765833e-02f,-2.03448504e-01f,-5.00601828e-02f,
+1.80994391e-01f,+1.03993505e-01f,-1.45930156e-01f,-9.31068435e-02f,-1.46966904e-01f,
+1.36790603e-01f,+4.77690287e-02f,+1.11018822e-01f,+8.59926939e-02f,-1.26937509e-01f,
+1.05443686e-01f,-2.19890386e-01f,-2.25717828e-01f,+6.03315644e-02f,+2.28290871e-01f,
-1.19611546e-01f,+2.57136654e-02f,+1.36953935e-01f,+1.17242016e-01f,-1.04430445e-01f,
-2.19964087e-02f,+8.51315707e-02f,+1.63341179e-01f,+2.30395094e-01f,-6.03717938e-02f,
+6.72849566e-02f,-1.28969461e-01f,+2.51602262e-01f,+8.47849697e-02f,-3.17642540e-02f,
-1.30519286e-01f,+8.92278031e-02f,-8.26914757e-02f,+8.03984404e-02f,-1.28414417e-02f,
-2.29303256e-01f,-1.93076506e-01f,+9.37222224e-03f,-3.63962837e-02f,-1.97310761e-01f,
-2.14505732e-01f,+8.47164094e-02f,-4.89706406e-03f,+5.97305745e-02f,-4.64655124e-02f,
-1.12358436e-01f,+1.54581502e-01f,+1.05108149e-01f,+4.42172773e-02f,-2.11789943e-02f,
+7.75472969e-02f,+2.75504291e-02f,-1.66364521e-01f,-1.58703431e-01f,-5.27309291e-02f,
+1.69788018e-01f,+3.23347338e-02f,+2.21461691e-02f,-5.43655641e-02f,-1.64098918e-01f,
+1.77099660e-01f,-1.66349277e-01f,+1.08571097e-01f,+2.02346310e-01f,-1.83683679e-01f,
-2.14001626e-01f,+1.00268938e-01f,-1.39072284e-01f,-1.46643460e-01f,+7.94024989e-02f,
-1.54705644e-01f,+1.97188497e-01f,-1.70081109e-01f,-3.17208543e-02f,+5.52550815e-02f,
+1.57480493e-01f,-9.05645490e-02f,-2.23264168e-03f,-1.11591980e-01f,+1.67571023e-01f,
+2.05310777e-01f,-1.60810128e-01f,+8.46305713e-02f,-1.56513780e-01f,+7.87460804e-03f,
+1.25801014e-02f,-4.87683713e-02f,-4.53730524e-02f,-4.72519360e-02f,-1.97951376e-01f,
-2.02912867e-01f,-1.69833764e-01f,+1.73109159e-01f,+1.66668639e-01f,+1.58962682e-01f,
-1.56752363e-01f,-5.06723821e-02f,-1.79172121e-02f,+1.80565074e-01f,+1.70580998e-01f,
-1.16016127e-01f,+1.66505873e-01f,+3.76551226e-03f,+2.08851337e-01f,+1.89962387e-01f,
-9.51922461e-02f,+5.15694097e-02f,+9.47345942e-02f,-1.87413752e-01f,+1.83299825e-01f,
-5.30514121e-03f,-1.87848538e-01f,+2.51424890e-02f,+7.77854621e-02f,+1.68049544e-01f,
+2.00941280e-01f,-6.05458990e-02f,-1.26714647e-01f,+1.39148399e-01f,+1.44499868e-01f,
+2.32967213e-01f,+8.06050003e-02f,+1.61368862e-01f,-1.50672644e-01f,-2.01212615e-01f,
-2.92591215e-03f,+2.01316595e-01f,-1.23396151e-01f,+1.27479032e-01f,+9.14057344e-02f,
-1.67187825e-01f,+2.12881397e-02f,+2.01008484e-01f,-1.26599923e-01f,-1.37965992e-01f,
-2.03107670e-01f,+1.19069323e-01f,+5.46949431e-02f,-1.76962782e-02f,+1.06874622e-01f,
-2.13269442e-02f,-1.06985584e-01f,+8.87239277e-02f,-1.29002944e-01f,-1.54419407e-01f,
+9.29563493e-02f,+1.20147653e-01f,+8.39871317e-02f,-1.55342475e-01f,-6.79290295e-02f,
+2.48780683e-01f,-7.39348978e-02f,+2.11570323e-01f,-8.92636478e-02f,-1.31507128e-01f,
-4.49149050e-02f,+1.81639753e-02f,+7.84213543e-02f,+1.54393492e-04f,-1.90019205e-01f,
-5.85750453e-02f,+1.66519925e-01f,-2.03862935e-01f,+2.79325563e-02f,+1.20567270e-01f,
-1.35086089e-01f,-1.69657156e-01f,+1.29698455e-01f,-1.65679082e-01f,+1.03530809e-01f,
+6.12433925e-02f,+2.26030216e-01f,-4.60789576e-02f,-1.87183231e-01f,-1.04286149e-01f,
-3.36930193e-02f,+8.35725516e-02f,+1.32592037e-01f,-9.34927911e-02f,-1.63532525e-01f,
+7.08498433e-02f,-6.89831227e-02f,+8.27713013e-02f,-1.41100287e-01f,-4.41396721e-02f,
+1.12057112e-01f,-1.81829542e-01f,+1.18090399e-01f,-4.68458459e-02f,+9.07925982e-03f,
-2.28441566e-01f,+1.49948582e-01f,+1.79008432e-02f,+1.31589457e-01f,+5.67563474e-02f,
-2.42398735e-02f,-1.79488301e-01f,+1.50683910e-01f,+4.91947215e-03f,+2.87272446e-02f,
-2.17620179e-01f,+1.89241618e-01f,+6.75468668e-02f,-1.96805805e-01f,-1.49361089e-01f,
+4.27121669e-02f,+1.68741301e-01f,+5.25607467e-02f,+7.77646527e-02f,-1.02547966e-01f,
-1.08648680e-01f,-6.39997348e-02f,-1.95973799e-01f,-1.48992896e-01f,+3.82935703e-02f,
-7.55465105e-02f,+6.08565845e-02f,-1.10490747e-01f,-6.81916028e-02f,-1.29007518e-01f,
-5.50704934e-02f,-5.09118102e-02f,+2.62954146e-01f,+2.03916267e-01f,-2.02845797e-01f,
+9.61999893e-02f,-1.31631821e-01f,-3.08551174e-02f,+2.31775090e-01f,+6.44078553e-02f,
-2.14865312e-01f,+1.55082434e-01f,+2.02804446e-01f,+2.13877723e-01f,-2.01378111e-02f,
+6.50845245e-02f,+8.55440274e-02f,-1.62674069e-01f,+1.66322872e-01f,+9.80361700e-02f,
+6.78093359e-02f,+2.35808477e-01f,-8.37942436e-02f,-5.21104485e-02f,+9.85584036e-02f,
-1.94293149e-02f,-1.41927034e-01f,-1.05929382e-01f,+1.62266448e-01f,-1.11016268e-02f,
+1.57595456e-01f,-2.22534671e-01f,+1.11126021e-01f,-3.09830997e-02f,+2.14385185e-02f,
-1.72868937e-01f,+1.30705193e-01f,+8.16113129e-02f,+1.71801120e-01f,+4.79578823e-02f,
-1.97571367e-01f,+7.23657385e-02f,+1.10737942e-01f,-1.33361205e-01f,+9.18933973e-02f,
-2.29827911e-01f,+2.56271809e-01f,+2.46571936e-02f,+8.14349502e-02f,+1.56415291e-02f,
-1.53019994e-01f,+6.33820370e-02f,-5.06910831e-02f,-6.31487370e-02f,+1.06369928e-02f,
+1.02761723e-02f,-4.67918664e-02f,-9.69195366e-03f,-1.43485412e-01f,+2.04510882e-01f,
-1.06589824e-01f,-5.34507772e-03f,+1.12311356e-01f,+2.12995753e-01f,-1.69282541e-01f,
+1.70537665e-01f,-9.13107544e-02f,-1.62626356e-01f,-1.07119553e-01f,-5.66737428e-02f,
-3.80778052e-02f,-6.02886267e-02f,+1.07586950e-01f,+2.30165258e-01f,+1.35129973e-01f,
+1.42360270e-01f,+2.11581215e-01f,+1.37077823e-01f,-2.16901347e-01f,+9.09481347e-02f,
+1.28740892e-01f,+2.18115136e-01f,+1.15751415e-01f,+2.97557786e-02f,+1.95633456e-01f,
-2.94110645e-02f,+5.78094125e-02f,+1.35858953e-02f,+1.39699131e-01f,+1.02511033e-01f,
+2.26084709e-01f,+4.96594273e-02f,+8.83105621e-02f,-5.84460273e-02f,-1.58853412e-01f,
+3.97380851e-02f,-1.14577904e-01f,-9.83148515e-02f,+4.47737519e-04f,+1.03023404e-03f,
+6.65777549e-02f,+1.81436196e-01f,-1.81150995e-03f,+1.05469264e-02f,+1.51548013e-01f,
+1.50061384e-01f,+1.43000290e-01f,-1.68394417e-01f,-8.46803002e-03f,-1.91098809e-01f,
+8.52621943e-02f,+1.40514702e-01f,+1.77730933e-01f,-3.37405503e-02f,+2.48962883e-02f,
+6.15063086e-02f,-1.62275285e-01f,-6.07160330e-02f,-1.06492721e-01f,-1.56431749e-01f,
+1.47691682e-01f,-1.13868758e-01f,+2.13238105e-01f,-1.22480415e-01f,+1.06168911e-01f,
-4.01634164e-02f,+1.38886556e-01f,-1.28825411e-01f,+1.13221824e-01f,-2.24121064e-01f,
+1.60660148e-01f,+7.78038725e-02f,-1.34028465e-01f,+1.60949320e-01f,-2.63420850e-01f,
-1.67286515e-01f,-2.84790862e-02f,+3.83555293e-02f,+1.56532347e-01f,-1.61784306e-01f,
+1.39777333e-01f,-2.57079810e-01f,-1.72153428e-01f,-8.88252854e-02f,+7.14358091e-02f,
+2.62408167e-01f,-6.79158121e-02f,-1.17237948e-01f,-7.42981583e-02f,-1.52472034e-01f,
-9.94322374e-02f,-1.84080496e-01f,-1.43190563e-01f,+7.03224987e-02f,-2.92478204e-02f,
-5.09485006e-02f,+6.82127923e-02f,+1.66140065e-01f,-4.55209613e-02f,+2.13911965e-01f,
+1.55176923e-01f,-1.63965091e-01f,+2.07851276e-01f,-8.04871321e-02f,+1.05435744e-01f,
-2.00655401e-01f,+9.49403495e-02f,-6.15667105e-02f,+1.98593691e-01f,+1.90970525e-01f,
+4.91583496e-02f,+8.30912739e-02f,-5.34561574e-02f,+2.54546851e-02f,-2.21342891e-02f,
+4.00874764e-02f,-6.84783012e-02f,+1.27565756e-01f,+1.51505426e-01f,+1.85080603e-01f,
-5.01492321e-02f,+4.05602902e-02f,-2.08719909e-01f,+5.79114705e-02f,+3.44558805e-02f,
-1.55234843e-01f,-2.60994136e-02f,-6.50686622e-02f,-1.26908481e-01f,-8.78092647e-03f,
+3.29016745e-02f,+1.11840233e-01f,-1.66770279e-01f,-5.89500815e-02f,-6.69009984e-03f,
+1.46533057e-01f,-7.14935362e-02f,+6.93654865e-02f,-1.28032133e-01f,+1.77115127e-01f,
-6.16538972e-02f,-9.52011347e-03f,-6.22211844e-02f,+7.83958286e-02f,+1.78808734e-01f,
-1.42936274e-01f,-1.10560603e-01f,-1.96929127e-02f,-1.98767379e-01f,-1.48790717e-01f,
-1.47170573e-01f,+3.39010581e-02f,-7.89498389e-02f,+2.88834665e-02f,-5.29663302e-02f,
-2.12970749e-01f,-2.00942650e-01f,+1.78348869e-01f,+5.75063191e-02f,-1.30297989e-01f,
+1.93165392e-01f,-2.15818301e-01f,+1.87699839e-01f,-2.01782137e-02f,-7.82681033e-02f,
+2.32308254e-01f,-7.37931579e-02f,-8.03352147e-02f,-1.54988304e-01f,+5.39146103e-02f,
-2.09562089e-02f,+1.35132223e-01f,+8.41474384e-02f,+1.56580076e-01f,-3.01392786e-02f,
+2.11062226e-02f,+2.53559291e-01f,-1.80054829e-01f,+9.57249478e-03f,-7.79504403e-02f,
+1.63530633e-01f,+1.32247910e-01f,-1.74766302e-01f,+2.06416436e-02f,+2.51774669e-01f,
+1.84520021e-01f,-5.39081953e-02f,+1.08432680e-01f,+1.58441529e-01f,-6.61243275e-02f,
+2.17941001e-01f,-1.20036036e-01f,+1.09591261e-01f,-1.23474158e-01f,+1.41737863e-01f,
+1.07169382e-01f,+1.70452341e-01f,+7.04018548e-02f,+2.82166749e-02f,-1.29438624e-01f,
+1.46622494e-01f,+1.51423723e-01f,+4.90992852e-02f,-5.24874367e-02f,-1.55371010e-01f,
+7.70608522e-03f,-8.18491280e-02f,-2.28242949e-04f,-3.36825177e-02f,-2.60457303e-02f,
+1.33759379e-02f,-2.23804995e-01f,+1.13516055e-01f,-1.83329776e-01f,-1.97013423e-01f,
+1.27301902e-01f,-2.08108276e-01f,-1.87391251e-01f,+1.48968890e-01f,-1.09492965e-01f,
-1.97241366e-01f,-1.77289307e-01f,-1.64796710e-01f,-1.72624558e-01f,+5.39377667e-02f,
-2.09098727e-01f,+1.27491623e-01f,-1.28297418e-01f,+2.50199676e-01f,-1.41267583e-01f,
+1.35707021e-01f,-6.91822469e-02f,+8.00913200e-02f,-1.18517593e-01f,-1.88630208e-01f,
-5.25028072e-02f,-1.02205217e-01f,-7.27557093e-02f,+3.55451927e-02f,-2.08775267e-01f,
+9.94056016e-02f,+1.89759925e-01f,-1.76413152e-02f,-1.34296551e-01f,+1.32703796e-01f,
-1.08422071e-01f,-1.74927697e-01f,-1.89539075e-01f,+2.49754727e-01f,+1.68937400e-01f,
+2.22521231e-01f,+1.24023907e-01f,-6.53344989e-02f,-1.84469491e-01f,-1.35813028e-01f,
-9.81012732e-02f,+4.92241308e-02f,+1.80062234e-01f,-1.55674845e-01f,+1.09331109e-01f,
-1.72999129e-01f,+9.14319903e-02f,+2.40867287e-01f,+1.26956642e-01f,+1.73878893e-01f,
+1.28973708e-01f,+5.40540600e-03f,+2.02081278e-01f,-1.11687586e-01f,-1.88372418e-01f,
+3.45410332e-02f,+2.16942564e-01f,+1.18593462e-01f,+1.18015721e-01f,-1.27854705e-01f,
+1.02216244e-01f,-1.44889504e-01f,-3.89310643e-02f,-7.77650019e-03f,-5.10171801e-02f,
+2.46311858e-01f,+4.20791656e-02f,-1.70406371e-01f,+5.30283004e-02f,+1.82476491e-01f,
+2.23529637e-02f,-2.32852660e-02f,-1.72189698e-01f,-2.20764186e-02f,+2.02100754e-01f,
-1.36986241e-01f,-9.19410810e-02f,-5.76377138e-02f,-7.03225881e-02f,+3.46420892e-02f,
+1.06724724e-01f,-2.23709002e-01f,+6.57376554e-03f,-1.23890731e-02f,+1.80335175e-02f,
-2.04467267e-01f,-2.35778064e-01f,-2.10344464e-01f,+4.03446145e-02f,-1.27810761e-01f,
-4.39117886e-02f,-2.38694817e-01f,+7.67332911e-02f,+9.65022147e-02f,+1.31159529e-01f,
-1.37869447e-01f,-1.65746570e-01f,-7.91559443e-02f,-1.34814888e-01f,-5.15047051e-02f,
-1.72000811e-01f,-2.02124894e-01f,-1.66456372e-01f,-2.74494272e-02f,+6.76175430e-02f,
-5.59833087e-02f,-2.21424371e-01f,+1.13036800e-02f,-2.18478665e-01f,+1.13358989e-01f,
+2.13854298e-01f,-1.07272662e-01f,+2.29653195e-01f,-1.23321474e-01f,-7.53634945e-02f,
-2.44510397e-01f,+1.92716986e-01f,-1.42937630e-01f,+1.99533120e-01f,-1.79784387e-01f,
+7.05588236e-02f,+9.23255235e-02f,-2.92823296e-02f,+9.91422012e-02f,-9.50666443e-02f,
+2.39828080e-01f,+2.12733641e-01f,+9.22663957e-02f,+9.17391703e-02f,-2.54448354e-01f,
+3.06594353e-02f,+1.94848597e-01f,+1.82612136e-01f,-1.12384692e-01f,+1.51576668e-01f,
-1.42706066e-01f,-1.74255252e-01f,-1.08799465e-01f,+1.57368347e-01f,-2.20334977e-02f,
+7.50019923e-02f,+1.07945792e-01f,+1.23459265e-01f,-1.21146321e-01f,-3.51334997e-02f,
+1.03094012e-01f,+1.76533043e-01f,-1.72622904e-01f,-9.34806019e-02f,+7.32882768e-02f,
-2.93198042e-02f,+1.96925849e-02f,-2.09980950e-01f,-7.72109479e-02f,-3.18608806e-02f,
-9.98164415e-02f,-1.51332378e-01f,-8.85324627e-02f,-5.56538589e-02f,+3.14765796e-02f,
-1.35210697e-02f,-1.33355767e-01f,+1.19259104e-01f,-1.12602428e-01f,+6.01628572e-02f,
-1.50545403e-01f,+7.05391020e-02f,+1.13956243e-01f,-1.63080916e-01f,+1.64554447e-01f,
-1.02786362e-01f,-8.96625444e-02f,+3.10820211e-02f,+2.25907639e-01f,-2.00052217e-01f,
+2.47701467e-03f,-4.39792685e-02f,-1.16336029e-02f,+1.97693929e-01f,-4.13284190e-02f,
-1.76958382e-01f,+1.89979654e-02f,+1.35529608e-01f,+2.14318216e-01f,-2.67598510e-01f,
-7.78316781e-02f,-1.76856115e-01f,+8.57155174e-02f,+4.11661081e-02f,-1.96871251e-01f,
-1.23638548e-01f,-6.00568056e-02f,-8.88447240e-02f,+1.23797178e-01f,+1.96158811e-02f,
+1.61847442e-01f,-3.39168161e-02f,-1.12916328e-01f,+1.62917413e-02f,+1.99833572e-01f,
-1.18623205e-01f,+1.05750607e-02f,-2.00376570e-01f,+2.25917086e-01f,+1.37594774e-01f,
+1.43974386e-02f,+1.58753246e-01f,+2.08802685e-01f,-1.23650990e-02f,+1.50003746e-01f,
+2.08872676e-01f,-6.66246340e-02f,-4.22232822e-02f,-2.07602352e-01f,+6.24063984e-03f,
-1.11907683e-01f,-1.77410543e-01f,-1.09321691e-01f,-1.41236797e-01f,+1.95090756e-01f,
+1.90418959e-01f,+2.45928671e-02f,-1.86496645e-01f,-1.90800056e-02f,+1.55557483e-01f,
-1.44042730e-01f,-1.73146173e-01f,+1.72610864e-01f,+2.10666135e-01f,-2.06198052e-01f,
-8.25125317e-04f,+2.24155694e-01f,-1.01880707e-01f,+1.23995505e-01f,+8.38269740e-02f,
+1.82191402e-01f,-1.85055777e-01f,-1.51652321e-01f,-1.36146575e-01f,+1.14718691e-01f,
-1.86304003e-02f,-2.22744867e-02f,+1.79594144e-01f,+1.88069418e-01f,-2.13824317e-01f,
+6.93694353e-02f,+1.91469014e-01f,-2.81472784e-02f,+4.87953536e-02f,-6.48742765e-02f,
+1.18101984e-02f,-5.13362736e-02f,+1.06868640e-01f,+8.76160786e-02f,-2.23784447e-02f,
-4.67034429e-02f,-2.56866932e-01f,-1.03584841e-01f,-6.68578874e-03f,-4.79408279e-02f,
-1.77684829e-01f,+1.85417190e-01f,+4.82380576e-02f,+1.39498577e-01f,+1.08601347e-01f,
-1.90938503e-01f,+1.07698865e-01f,+9.61374268e-02f,+2.30484545e-01f,-1.96677759e-01f,
+1.66378170e-01f,-2.65290201e-01f,-8.59256238e-02f,-2.90330853e-02f,+6.80848509e-02f,
-2.00394884e-01f,+4.41706665e-02f,+5.34540862e-02f,-1.11304983e-01f,+1.15250662e-01f,
+6.78478330e-02f,-4.51500975e-02f,+1.71578944e-01f,-7.84830302e-02f,+1.85469553e-01f,
-1.13533437e-01f,-1.82336688e-01f,+2.22436175e-01f,+2.08407030e-01f,+6.98606437e-03f,
+1.40797332e-01f,-1.89500347e-01f,+6.74104551e-03f,-1.05322033e-01f,-1.00645751e-01f,
-1.71683729e-01f,+4.26133648e-02f,+1.37857705e-01f,+2.00015940e-02f,+1.51160866e-01f,
-1.51409596e-01f,+1.70419320e-01f,+5.28397411e-02f,+1.35745943e-01f,+6.19607382e-02f,
+6.34304881e-02f,+2.74809375e-02f,+4.93148267e-02f,+1.41401768e-01f,-1.95696741e-01f,
-2.93957405e-02f,-4.15379032e-02f,-1.09673981e-02f,+1.23409837e-01f,-1.48989931e-01f,
-6.10115491e-02f,+1.20842212e-03f,+4.14614789e-02f,+4.96675335e-02f,+6.98040500e-02f,
-1.46209195e-01f,-1.70749888e-01f,+3.57840061e-02f,+1.37086064e-01f,-3.66769731e-03f,
+2.14411430e-02f,+2.38797635e-01f,+2.30518170e-02f,+4.64369636e-03f,-2.83244681e-02f,
+1.54027283e-01f,-1.67827368e-01f,-1.24236539e-01f,-8.62277485e-03f,-1.14791077e-02f,
-9.26513411e-03f,+2.96708047e-02f,+1.35869458e-01f,-1.57862395e-01f,-1.98388115e-01f,
+1.64151892e-01f,+1.83399275e-01f,-2.20236838e-01f,+1.61454082e-03f,-2.00920016e-01f,
-6.17181174e-02f,+1.57603417e-02f,-1.94959193e-01f,-1.41119331e-01f,+1.07913367e-01f,
-4.33566161e-02f,+2.57011414e-01f,-1.68457612e-01f,+1.15896605e-01f,+6.55406564e-02f,
-1.68514308e-02f,-1.59862220e-01f,+7.25747496e-02f,+1.82597116e-01f,+6.79750182e-03f,
+1.35157153e-01f,+1.26372710e-01f,-2.23672211e-01f,+1.80589885e-01f,+1.05757833e-01f,
+1.96617320e-01f,+2.29605120e-02f,-1.58317715e-01f,-1.13000453e-01f,-2.93601025e-02f,
-2.22934887e-01f,+6.18802570e-03f,-5.75547516e-02f,+2.13484108e-01f,-1.37665614e-01f,
+1.98945776e-01f,+7.58371651e-02f,+1.25161916e-01f,+1.11168265e-01f,-5.74762560e-02f,
+1.59512907e-01f,-4.77023572e-02f,+1.64888307e-01f,+6.16865195e-02f,+1.74487960e-02f,
+2.25308225e-01f,+2.22011089e-01f,-6.11162856e-02f,+1.62191138e-01f,+2.35901922e-01f,
-6.84719393e-03f,+2.56541282e-01f,-1.25001103e-01f,+1.43286049e-01f,-8.39080364e-02f,
+1.91478953e-01f,-1.79537863e-01f,+2.15679243e-01f,-4.37214710e-02f,+2.07085177e-01f,
+1.12870388e-01f,+2.05158368e-01f,+2.08243161e-01f,-1.62014946e-01f,+1.18801594e-01f,
-3.18810046e-02f,-6.95329253e-03f,-6.34443313e-02f,-1.62898362e-01f,-8.72731581e-02f,
+1.89377367e-01f,-1.50055155e-01f,-3.61463726e-02f,-5.46942577e-02f,-9.42869950e-03f,
+1.31419539e-01f,+2.20990092e-01f,+6.67296574e-02f,+4.43610698e-02f,+3.25578339e-02f,
+1.89897791e-02f,-1.82106316e-01f,-1.58932999e-01f,-1.33993998e-01f,-1.82716586e-02f,
-1.04003698e-01f,+1.73809201e-01f,-4.50529419e-02f,-8.99127647e-02f,-8.59175622e-02f,
+1.75479800e-01f,+3.78238969e-02f,+1.95594519e-01f,-2.35092834e-01f,+1.22154728e-01f,
-1.21621236e-01f,-1.48108870e-01f,-1.36535808e-01f,+7.34313205e-02f,-1.63853280e-02f,
-1.68890402e-01f,-5.56990355e-02f,+2.17001941e-02f,-1.01625286e-01f,-7.57743344e-02f,
-1.24977641e-01f,+4.41936292e-02f,-4.67688963e-02f,+3.10059004e-02f,-2.29542866e-01f,
-7.65329152e-02f,-2.08090648e-01f,-7.93037117e-02f,+2.43561585e-02f,+7.11438283e-02f,
+1.19156212e-01f,-1.58742905e-01f,-2.01219827e-01f,+3.97689305e-02f,-2.01982021e-01f,
-1.69197500e-01f,-1.77043453e-01f,+1.60568893e-01f,+2.40652263e-01f,-2.12927371e-01f,
-1.31283969e-01f,-2.44542167e-01f,+5.87666184e-02f,+1.46789610e-01f,-1.64612234e-01f,
+1.97861120e-01f,+1.10298730e-01f,-2.16844440e-01f,+2.56622702e-01f,+6.81504682e-02f,
+2.00901926e-01f,+3.54188983e-03f,-2.06319690e-01f,-5.21447090e-03f,+1.73548106e-02f,
+9.81710330e-02f,+1.28453344e-01f,-1.05818093e-01f,-1.47352710e-01f,-1.35575578e-01f,
-2.08726510e-01f,+3.20847407e-02f,+1.19141810e-01f,-2.00514004e-01f,+4.03708182e-02f,
-4.22133021e-02f,-1.63480043e-01f,-4.28718477e-02f,-8.33960101e-02f,+1.26951218e-01f,
+4.73049842e-02f,+1.64451450e-01f,+2.32615963e-01f,+1.35033170e-03f,-1.06689902e-02f,
-7.83672035e-02f,-1.16884716e-01f,-8.64292532e-02f,-1.59505129e-01f,-1.89159051e-01f,
-1.70941581e-03f,+2.14037254e-01f,-1.07434385e-01f,+7.24953134e-05f,+1.43162400e-01f,
-1.07796520e-01f,-1.06983520e-01f,+1.00502595e-01f,+1.12909086e-01f,-4.14014347e-02f,
+1.08318113e-01f,+3.66348177e-02f,+9.69989002e-02f,-2.56606936e-02f,-6.34185299e-02f,
-1.66546717e-01f,-1.47238582e-01f,+1.36283040e-01f,+1.62746683e-01f,-1.70492217e-01f,
+1.10231072e-01f,-1.07697241e-01f,+2.25033343e-01f,+2.17426065e-02f,+6.35455549e-02f,
-1.38212964e-01f,+2.30557859e-01f,+1.27912566e-01f,+1.31170020e-01f,-8.58741477e-02f,
-2.71663219e-02f,-3.59182954e-02f,-1.45122275e-01f,+8.35457537e-03f,-2.01687589e-01f,
+2.56554693e-01f,-1.34400520e-02f,-1.71176940e-01f,-3.24720778e-02f,+1.77249089e-01f,
-7.90181533e-02f,+1.82678357e-01f,+1.20854722e-02f,+1.71991989e-01f,+1.32482424e-01f,
+2.08466038e-01f,+1.89170912e-01f,+1.53258711e-01f,+1.78477734e-01f,+3.87380756e-02f,
+7.19847679e-02f,-1.47642214e-02f,-9.29254517e-02f,-8.21873993e-02f,-1.31013952e-02f,
-9.81972814e-02f,+7.83068240e-02f,+5.73174097e-02f,-6.08383194e-02f,-9.16786790e-02f,
-3.12928073e-02f,-1.76154599e-01f,-3.76524329e-02f,+8.51600915e-02f,+1.03771679e-01f,
-2.24115416e-01f,-8.22818279e-02f,+1.60202589e-02f,-2.12237418e-01f,+6.68952391e-02f,
-9.76312980e-02f,-9.15467739e-04f,+8.63210857e-03f,+1.25308499e-01f,-4.40616757e-02f,
+2.14265808e-01f,-1.26309395e-02f,+1.88089311e-02f,+1.92300573e-01f,+1.20199338e-01f,
-1.49249256e-01f,+1.92287937e-01f,+9.11715776e-02f,+3.11694890e-02f,+2.04945609e-01f,
+1.13847360e-01f,-1.12767667e-02f,+1.06013998e-01f,-3.39093357e-02f,+1.96260065e-02f,
-2.54312009e-02f,+1.48612216e-01f,+1.47408649e-01f,-7.65827149e-02f,-2.48540938e-03f,
-1.40535682e-01f,-1.44041136e-01f,+4.21553403e-02f,+1.58284411e-01f,+3.39085609e-02f,
+1.89751387e-04f,+3.32045704e-02f,-2.14944556e-01f,-7.31811672e-02f,+1.59210190e-01f,
+1.93841472e-01f,-1.03868127e-01f,+1.17334053e-01f,+8.45945626e-02f,+8.37364048e-02f,
+3.66483480e-02f,-1.15496010e-01f,-1.13653205e-01f,+1.77977160e-01f,-1.94473803e-01f,
-1.90906718e-01f,-2.06424102e-01f,-3.47939879e-02f,+9.01190192e-02f,+9.56937820e-02f,
+1.07220635e-01f,+2.18706727e-02f,-1.30970806e-01f,+1.34835839e-02f,+1.14037991e-02f,
-1.88925415e-01f,+2.03533724e-01f,+1.58477768e-01f,-9.14201736e-02f,+1.81084737e-01f,
-1.60854310e-01f,+1.77659497e-01f,+2.02736929e-01f,-1.72174186e-01f,-3.18781696e-02f,
+1.82238564e-01f,-1.16215371e-01f,-1.42654121e-01f,+1.40864968e-01f,+5.26303500e-02f,
-1.16843984e-01f,+2.39929780e-01f,+1.29149079e-01f,+5.01453541e-02f,+1.46812409e-01f,
-1.74309403e-01f,-1.88238338e-01f,+1.63562521e-02f,-6.83484003e-02f,+1.55876532e-01f,
+9.00807157e-02f,+7.60236681e-02f,+1.69128269e-01f,+8.77395049e-02f,+1.13328304e-02f,
+2.99492222e-03f,+8.40261430e-02f,-1.82734415e-01f,-2.01904714e-01f,-7.54660927e-03f,
-1.54317126e-01f,-5.13352007e-02f,-1.96798176e-01f,+2.18683198e-01f,-1.13297440e-02f,
+1.71119139e-01f,+2.57508487e-01f,-1.39808565e-01f,-4.72682565e-02f,-1.52704865e-02f,
-1.90508977e-01f,-1.98737178e-02f,-6.24564141e-02f,+1.73479170e-01f,+1.33339822e-01f,
+1.57770619e-01f,+2.50417814e-02f,+1.39422834e-01f,-5.87248988e-02f,-4.21634912e-02f,
-8.70539993e-02f,-6.28552064e-02f,-2.39822809e-02f,+4.99072857e-03f,+6.33903444e-02f,
+7.56159201e-02f,-2.28532195e-01f,+1.87239423e-02f,+1.80262059e-01f,-2.19968986e-03f,
+6.49913698e-02f,-1.31735861e-01f,-1.92843959e-01f,-4.97363694e-03f,-1.78760532e-02f,
+1.14436142e-01f,-1.43371364e-02f,+4.26353514e-02f,-2.70076655e-02f,-2.12855726e-01f,
-5.12476601e-02f,-2.59315385e-03f,-7.81429000e-03f,-2.35746652e-02f,+1.66466311e-01f,
+7.09441602e-02f,+1.99241012e-01f,+7.54686072e-02f,-5.90525977e-02f,-1.65350887e-03f,
+1.73382178e-01f,+1.60333011e-02f,-3.16289552e-02f,-1.34278640e-01f,-1.66749340e-02f,
+1.42619655e-01f,+1.49956465e-01f,+2.33462870e-01f,+1.78296864e-01f,-1.98797379e-02f,
-1.66759133e-01f,+1.04989260e-01f,-1.34553760e-01f,-6.83213249e-02f,-2.38333805e-03f,
-2.15260480e-02f,-1.00076199e-01f,+1.01031382e-02f,-8.95468146e-03f,-1.30480573e-01f,
-1.22611210e-01f,+5.85351698e-02f,-1.56298995e-01f,-2.42850035e-02f,-1.36953011e-01f,
-1.55389801e-01f,-1.52012885e-01f,+4.82393391e-02f,-4.64937687e-02f,+1.84666947e-01f,
+4.14949097e-02f,-1.90636814e-01f,+1.86671820e-02f,-5.93452640e-02f,+7.55212968e-03f,
-1.62916943e-01f,-2.11658522e-01f,+9.88541022e-02f,+4.23341133e-02f,-2.01809108e-01f,
-1.91272497e-01f,-1.23342447e-01f,-1.72615454e-01f,+1.60340950e-01f,-2.81291343e-02f,
+1.21437557e-01f,+1.78260386e-01f,-1.41768083e-01f,+1.13877930e-01f,+1.87792882e-01f,
-9.59420949e-02f,-5.66800460e-02f,-2.85833776e-02f,-1.71573281e-01f,-5.32335341e-02f,
+4.73904498e-02f,+1.08129606e-02f,+1.16914615e-01f,-2.11474001e-01f,-1.04722276e-01f,
-8.91896561e-02f,-7.19071031e-02f,+1.63929641e-01f,+1.71050444e-01f,+1.29479036e-01f,
+9.90322512e-03f,+2.18103200e-01f,+1.51970774e-01f,+1.93870366e-01f,+1.35705605e-01f,
+6.11677319e-02f,+1.01340845e-01f,-1.37734264e-02f,-1.21258326e-01f,+1.76936105e-01f,
-2.06569284e-01f,-2.11889580e-01f,+1.25751987e-01f,+8.63197595e-02f,+1.31648779e-01f,
-4.84253615e-02f,-5.53357527e-02f,+1.91367373e-01f,-2.78682727e-03f,+2.59808917e-02f,
+3.31343263e-02f,+1.60349756e-01f,-5.37394881e-02f,+6.92736059e-02f,-8.17803890e-02f,
+2.06224188e-01f,-1.07934475e-01f,-1.88956752e-01f,+1.74334005e-01f,-1.10914454e-01f,
+1.74311677e-03f,-7.20523596e-02f,-2.96629816e-02f,+7.56384730e-02f,-7.20155537e-02f,
+1.07709859e-02f,-3.27082686e-02f,-7.54945874e-02f,-7.78914690e-02f,+8.43535662e-02f,
+9.27996356e-03f,-1.55300677e-01f,+2.04004973e-01f,-7.97142461e-02f,+7.28746876e-02f,
-1.17411986e-02f,+7.70416334e-02f,+1.52286738e-02f,+1.89830408e-01f,-1.43764094e-01f,
+1.98798627e-02f,-1.53303519e-01f,-1.17215492e-01f,+8.11249614e-02f,-1.25787616e-01f,
-1.22348152e-01f,-2.03620300e-01f,+1.64447621e-01f,+1.70483887e-01f,-6.28164858e-02f,
-6.71070674e-03f,+5.50168753e-03f,+1.67926326e-01f,+1.48800060e-01f,-1.28538474e-01f,
-9.29671004e-02f,-4.46877368e-02f,-1.33797914e-01f,+2.10528914e-02f,-5.81315644e-02f,
-1.32093892e-01f,-1.34802520e-01f,+1.87244207e-01f,-1.17017947e-01f,-5.79536483e-02f,
+1.48976430e-01f,-1.13983192e-01f,-1.64368406e-01f,+1.58999464e-03f,-1.68588951e-01f,
+6.80936426e-02f,+1.10524803e-01f,+1.38827071e-01f,+1.99536681e-01f,-1.36606172e-01f,
-7.95213059e-02f,+1.01176813e-01f,-2.08514798e-02f,-6.55786917e-02f,-7.37605989e-02f,
+1.88461065e-01f,+1.74212068e-01f,-1.61701635e-01f,+6.79550692e-02f,+7.08797872e-02f,
-1.09202594e-01f,-1.46588042e-01f,-2.29440525e-01f,+2.84467302e-02f,+1.38569586e-02f,
-1.79888740e-01f,+6.96873991e-03f,-1.69304430e-01f,-4.09221724e-02f,-1.54073402e-01f,
+4.76291170e-03f,-8.20996314e-02f,+7.63133392e-02f,-7.21849874e-02f,+1.07752373e-02f,
-1.30099878e-02f,-1.22832112e-01f,+1.67422727e-01f,+2.33739048e-01f,+1.58292428e-01f,
+8.04978758e-02f,+1.29197299e-01f,+1.24886617e-01f,+1.51015207e-01f,-1.78786620e-01f,
+1.89686283e-01f,+5.24690226e-02f,-1.71055168e-01f,+6.54380023e-02f,+1.55706316e-01f,
+1.09555371e-01f,+1.33008361e-01f,+1.24481402e-01f,-5.16956374e-02f,-2.02754408e-01f,
-3.95071507e-03f,-1.81675196e-01f,+2.14968666e-01f,-1.41886875e-01f,+7.02894405e-02f,
-2.89551038e-02f,-1.16615906e-01f,-1.37152821e-01f,+5.05868495e-02f,-7.86227584e-02f,
+1.92427099e-01f,+4.11587581e-03f,+6.79231063e-02f,-2.13275358e-01f,+2.12166132e-03f,
-1.62591919e-01f,+2.67777033e-02f,+1.26498148e-01f,-1.86975479e-01f,+1.17971815e-01f,
+9.13147777e-02f,-5.95971681e-02f,-1.37496833e-02f,-6.23558611e-02f,+1.31575361e-01f,
+2.02295512e-01f,+7.93063641e-02f,-1.29781768e-01f,-1.91922233e-01f,+9.27727744e-02f,
+2.03875303e-01f,-1.24796852e-01f,-1.65036142e-01f,-2.19015591e-02f,+1.92727000e-01f,
+5.69714531e-02f,-2.46191949e-01f,-2.35295564e-01f,-1.46535933e-01f,-1.69862760e-03f,
+1.08741939e-01f,-1.31624207e-01f,-1.11714073e-01f,-7.19299540e-02f,-1.61679000e-01f,
-1.32260159e-01f,-7.20633715e-02f,+1.74042225e-01f,-1.18893646e-01f,+1.41241848e-02f,
-1.15266144e-01f,+1.93746805e-01f,+1.05752908e-02f,+1.09163143e-01f,-9.36375782e-02f,
+6.09493516e-02f,+1.43748358e-01f,-7.29085878e-02f,+6.09731525e-02f,-5.92381433e-02f,
+7.91036785e-02f,+1.48303956e-01f,-1.69423208e-01f,+2.48026066e-02f,-1.46339744e-01f,
-3.39664891e-02f,+4.53761071e-02f,-7.23215193e-02f,+1.20054200e-01f,+1.56511173e-01f,
+5.69640845e-02f,+9.98749882e-02f,-4.93884161e-02f,-3.40682119e-02f,+7.48541504e-02f,
-7.46193379e-02f,+1.42704263e-01f,-4.10956442e-02f,-6.83747232e-02f,+2.06548974e-01f,
+1.69411927e-01f,-7.24279433e-02f,+1.87846452e-01f,-2.17016995e-01f,-7.41775781e-02f,
+2.06126049e-01f,+1.23667577e-02f,-1.81533501e-01f,-1.42753392e-01f,+7.92543516e-02f,
-7.31409043e-02f,-1.10313326e-01f,-1.86137989e-01f,+1.66470930e-01f,+6.00340404e-02f,
-8.57852697e-02f,+1.33905992e-01f,-8.17529857e-02f,-1.61491081e-01f,-1.38980135e-01f,
+1.30195811e-01f,-4.97131608e-02f,-1.68191120e-01f,-1.79744795e-01f,+1.67294830e-01f,
-1.14014536e-01f,-7.67210312e-03f,+1.71038955e-01f,-1.00339659e-01f,+1.89071193e-01f,
+4.00750190e-02f,+6.96659908e-02f,+1.76360086e-01f,-1.60314947e-01f,+1.31868916e-02f,
-1.29493484e-02f,-1.11382514e-01f,+1.74060255e-01f,+1.42813727e-01f,+1.13228962e-01f,
+2.16404051e-01f,-6.77829534e-02f,+2.41906866e-02f,+1.43903755e-02f,+1.31166458e-01f,
-1.72446027e-01f,+1.49602428e-01f,+2.28446964e-02f,-6.56730449e-03f,+1.01689853e-01f,
+1.93708330e-01f,+4.02102321e-02f,-1.20464414e-02f,+2.04115957e-01f,+5.97830042e-02f,
-3.15320194e-02f,-1.79458424e-01f,-1.05063163e-01f,+7.63321389e-03f,+1.58661723e-01f,
-1.93196416e-01f,+9.25854146e-02f,-5.25631942e-02f,-1.71524003e-01f,+1.88166797e-02f,
-9.35116410e-03f,-1.74930155e-01f,-1.19428277e-01f,-1.67800754e-01f,-4.31537814e-03f,
+1.74780533e-01f,-2.10438311e-01f,+2.33485959e-02f,-8.50549489e-02f,-6.71712011e-02f,
+2.01249257e-01f,-1.46583259e-01f,+1.42426804e-01f,-2.12972090e-01f,+2.93554105e-02f,
+1.09241948e-01f,+2.02847287e-01f,-1.83380730e-02f,+6.09472468e-02f,+1.05569683e-01f,
+6.51554838e-02f,+2.00176716e-01f,+1.72139674e-01f,-1.66913137e-01f,-1.16437599e-01f,
+1.97566912e-01f,-1.60823971e-01f,+6.15478419e-02f,-6.85560554e-02f,-5.81548773e-02f,
-5.32428287e-02f,+1.55780032e-01f,-1.12572826e-01f,+8.19946751e-02f,+2.46531352e-01f,
+1.14627294e-01f,-2.06492040e-02f,-5.52507490e-02f,+2.14723021e-01f,+2.43031889e-01f,
+1.86872199e-01f,-7.68499449e-03f,+1.51130110e-01f,+1.41281590e-01f,-3.78230289e-02f,
-4.45307940e-02f,-9.89129394e-02f,-8.12008083e-02f,+2.96030287e-02f,+1.46062523e-01f,
-1.20797485e-01f,-8.28472376e-02f,+1.58809036e-01f,+1.21626267e-02f,+1.34389535e-01f,
+6.93721250e-02f,-1.62662268e-01f,+6.55080304e-02f,-9.02884975e-02f,+2.86000967e-02f,
-1.76624715e-01f,+1.32875979e-01f,-1.31752584e-02f,-7.21280724e-02f,+2.43280485e-01f,
-9.72280949e-02f,-8.26689452e-02f,-8.44278485e-02f,-5.69257997e-02f,-1.61417753e-01f,
+5.75601310e-02f,-8.89427885e-02f,+2.14071929e-01f,-1.42715024e-02f,-1.73326924e-01f,
+9.31265280e-02f,+2.01713130e-01f,-2.76399516e-02f,-1.49137795e-01f,+1.24513827e-01f,
+9.50575992e-02f,+1.23041831e-01f,-1.68023884e-01f,-1.80142894e-01f,+5.43560646e-02f,
-4.98586334e-02f,-5.81748001e-02f,-1.17595866e-01f,-1.73173961e-03f,+5.40385605e-04f,
-7.27119818e-02f,+1.13347083e-01f,-1.90755084e-01f,+1.05385520e-01f,-1.12706468e-01f,
+1.93830073e-01f,+1.96126133e-01f,-1.21498719e-01f,+7.28757456e-02f,-1.24200240e-01f,
-1.97250709e-01f,+1.23907909e-01f,-2.30609879e-01f,+1.45870730e-01f,+8.73837695e-02f,
+1.01731703e-01f,+1.78168967e-01f,+2.28001047e-02f,+4.50895391e-02f,+1.31156221e-01f,
-2.02142492e-01f,-3.74360457e-02f,-1.64872080e-01f,+2.03499738e-02f,+2.31711268e-01f,
+8.61457065e-02f,+1.15689121e-01f,-2.42773473e-01f,-3.46375257e-02f,+2.42192708e-02f,
-8.01792070e-02f,+1.71839878e-01f,+7.36932904e-02f,-1.01582579e-01f,+6.61108345e-02f,
-1.92346394e-01f,-2.00426564e-01f,+1.13828860e-01f,-1.08269058e-01f,+1.03712507e-01f,
-5.77329583e-02f,+1.92584857e-01f,-1.65986717e-01f,-4.69472669e-02f,+1.62430391e-01f,
-1.98799908e-01f,+1.66592091e-01f,-1.71771526e-01f,+8.98545384e-02f,+3.72793972e-02f,
+1.24754466e-01f,+1.82081014e-01f,+6.50853217e-02f,-2.08644599e-01f,+1.91147789e-01f,
+4.30593528e-02f,+2.50610542e-02f,+6.65471181e-02f,+6.86845034e-02f,-1.82280272e-01f,
+1.32271275e-01f,-1.40340745e-01f,+6.43808767e-02f,-2.55740285e-01f,-6.94542900e-02f,
+2.18957916e-01f,+1.73125044e-01f,-5.37805445e-02f,+7.88642541e-02f,-2.04986110e-01f,
-7.68823503e-03f,+2.05072656e-01f,-2.40873724e-01f,-1.01459987e-01f,+4.61741351e-02f,
+4.56786901e-02f,-5.50303496e-02f,-6.66149706e-02f,+1.54889986e-01f,-1.31613225e-01f,
+1.66035131e-01f,-6.68675601e-02f,+4.29187864e-02f,+5.90700954e-02f,-1.10662468e-01f,
-5.49844913e-02f,+2.19235525e-01f,-1.33757204e-01f,+2.46325918e-02f,+8.90347138e-02f,
+1.76304772e-01f,-1.47229299e-01f,+2.12135807e-01f,+9.87072475e-03f,+5.56100756e-02f,
+1.70353085e-01f,-1.25578552e-01f,+1.43775448e-01f,-9.67010334e-02f,-2.23182991e-01f,
-7.36999810e-02f,-1.93673655e-01f,-1.82776153e-02f,-1.27981991e-01f,+2.21719235e-01f,
-2.57646590e-02f,+2.01676622e-01f,-1.56353176e-01f,-1.12204880e-01f,+1.10301487e-01f,
+1.21910632e-01f,-2.12406833e-02f,-1.14976861e-01f,-4.78080735e-02f,+1.89486608e-01f,
-1.32917706e-02f,-1.61480196e-02f,+5.35869636e-02f,+2.06947193e-01f,-2.28462026e-01f,
-1.76057234e-01f,-4.17929962e-02f,+8.56226459e-02f,-1.20657265e-01f,-1.77235052e-01f,
-1.43778235e-01f,+1.31534874e-01f,-1.67598724e-01f,+1.20209763e-02f,+1.99810445e-01f,
+1.90000013e-01f,+1.23679154e-01f,-4.55175061e-03f,+6.98713213e-02f,-5.92887737e-02f,
+2.08202004e-01f,+3.63381580e-02f,-2.21198335e-01f,+1.77468911e-01f,-1.55480504e-02f,
+1.72292382e-01f,-1.11773647e-01f,+8.78663063e-02f,+2.69980431e-02f,-7.96041414e-02f,
-1.47736752e-02f,+1.39147505e-01f,-1.65811598e-01f,+3.05061182e-03f,-6.61725923e-03f,
+8.82811919e-02f,+1.28874809e-01f,+1.24338023e-01f,+1.70839712e-01f,-1.66784465e-01f,
-9.84678417e-03f,+9.15711075e-02f,+1.67645663e-01f,+7.78888911e-02f,-1.02875851e-01f,
+2.10804686e-01f,-1.61651656e-01f,-1.58531606e-01f,+1.72406703e-01f,-1.79846749e-01f,
-8.54587331e-02f,-2.83820257e-02f,-7.57263554e-03f,+2.40902275e-01f,+2.12106124e-01f,
+1.24416694e-01f,+1.53197488e-02f,-1.84143156e-01f,+1.49043545e-01f,-2.48482957e-01f,
+5.19949235e-02f,-1.56409800e-01f,+8.34998637e-02f,-1.29814953e-01f,+1.16401568e-01f,
+3.12173814e-02f,+1.54447779e-01f,+1.74581766e-01f,-1.64958671e-01f,-8.49772394e-02f,
-1.57998100e-01f,+8.09301212e-02f,-9.71253961e-02f,-5.19828908e-02f,-2.25553080e-01f,
+5.00485525e-02f,+1.73721001e-01f,+1.19089030e-01f,-2.70604603e-02f,+9.16015059e-02f,
+4.05259691e-02f,+1.43697055e-03f,+4.40390967e-02f,-1.67485669e-01f,+6.63070083e-02f,
-8.02401602e-02f,+2.27634817e-01f,-1.30517244e-01f,-1.64012834e-01f,+1.98860526e-01f,
+8.49299431e-02f,-4.23738994e-02f,+3.56418826e-02f,+2.38250434e-01f,-8.37738737e-02f,
-1.78521499e-01f,-7.65681639e-02f,+1.25057139e-02f,+2.31181577e-01f,-4.40246090e-02f,
+2.32780516e-01f,+1.73291549e-01f,-1.49722517e-01f,+4.02022339e-03f,-3.45838070e-02f,
+1.01143047e-01f,-1.30397245e-01f,-1.85971454e-01f,+1.83015719e-01f,+2.53850259e-02f,
-1.82607979e-01f,-1.96311131e-01f,+8.78673270e-02f,+1.41057685e-01f,+1.23257011e-01f,
-5.05596362e-02f,-1.34767741e-01f,-3.18288952e-02f,-1.37942910e-01f,-1.33916244e-01f,
-1.06450744e-01f,-1.43432334e-01f,+1.91982225e-01f,+2.27577731e-01f,-6.31186962e-02f,
-1.63897067e-01f,-7.37658590e-02f,-1.39110968e-01f,-4.05812915e-03f,+1.54204860e-01f,
-1.22606486e-01f,-3.30964737e-02f,+1.70352623e-01f,+7.32436031e-02f,-1.40101492e-01f,
-1.93982124e-01f,+8.69626254e-02f,+1.47199810e-01f,+8.63238424e-02f,+5.46179600e-02f,
+3.63832042e-02f,+2.07424387e-01f,+1.82544664e-01f,-6.76663741e-02f,+1.78968847e-01f,
+1.24058723e-01f,-1.43595725e-01f,-9.40382481e-02f,-1.30891562e-01f,+9.17102695e-02f,
-1.02594689e-01f,+7.70823956e-02f,-1.10862523e-01f,-1.10462569e-02f,+1.42311230e-02f,
+4.78304140e-02f,+1.32355586e-01f,-7.10303150e-03f,-5.70952408e-02f,-9.53092724e-02f,
+2.01434970e-01f,-4.12166454e-02f,-4.82668877e-02f,+3.28510478e-02f,+3.09989061e-02f,
+1.06877483e-01f,-1.38784453e-01f,+1.14823267e-01f,-1.59416527e-01f,+1.22509971e-01f,
-2.33018100e-01f,+1.28435269e-01f,-2.03224704e-01f,-1.42691091e-01f,+1.02705359e-01f,
+1.72405168e-01f,+3.51242609e-02f,+1.07741252e-01f,-4.46603037e-02f,+4.54405881e-02f,
-1.88978747e-01f,-2.06057519e-01f,-1.67289615e-01f,-4.36239727e-02f,-1.12761855e-02f,
+2.27764249e-02f,-9.53076631e-02f,+2.06117958e-01f,-1.97168201e-01f,+6.03034757e-02f,
-1.64231569e-01f,+4.93091568e-02f,+7.99540877e-02f,-5.73042519e-02f,+1.37326479e-01f,
+1.42843649e-01f,+1.92756593e-01f,-5.94259612e-02f,-5.10781072e-02f,+7.52889141e-02f,
+4.98558842e-02f,-1.63933307e-01f,+2.11029738e-01f,+6.36024624e-02f,-1.77851290e-01f,
-9.14382935e-02f,-2.49010354e-01f,+3.65282409e-02f,-4.95202728e-02f,+1.86709449e-01f,
-1.10323541e-01f,-1.30302802e-01f,+1.09214872e-01f,-1.37863725e-01f,-1.62461400e-01f,
+1.31944180e-01f,+6.29955381e-02f,+1.29427135e-01f,+9.70484018e-02f,+1.03602096e-01f,
-1.01281680e-01f,-8.16469043e-02f,+1.24953456e-01f,-1.79817855e-01f,+9.38098952e-02f,
-9.83585715e-02f,+1.35347366e-01f,-1.10148117e-02f,-1.77182741e-02f,+6.46304861e-02f,
+7.04680085e-02f,+1.28989920e-01f,-1.57347023e-01f,-1.50703818e-01f,+2.52847612e-01f,
+1.54714778e-01f,+1.00259930e-01f,+1.25336871e-01f,+1.98897764e-01f,+2.33448565e-01f,
-3.61313894e-02f,-1.17673546e-01f,-1.54965580e-01f,+3.43033634e-02f,-3.25028300e-02f,
+4.94333878e-02f,-1.52484268e-01f,+5.45468889e-02f,+2.00800970e-01f,+1.86212465e-01f,
+1.10160388e-01f,-1.45382747e-01f,+2.19545588e-01f,-9.33862403e-02f,-1.98938578e-01f,
+1.52769824e-02f,-1.09064616e-01f,-8.97561237e-02f,-8.07631016e-02f,+2.45227158e-01f,
-7.06668198e-02f,+4.68955450e-02f,-9.20218751e-02f,+2.71913242e-02f,-1.26954317e-01f,
-1.60820633e-02f,+2.02321023e-01f,+7.83924982e-02f,-3.56866494e-02f,+2.54395843e-01f,
+2.19222918e-01f,-7.35456729e-03f,-1.84557065e-01f,+7.75601864e-02f,+1.28801152e-01f,
+9.57320780e-02f,+1.29741937e-01f,+1.32555947e-01f,-1.34995103e-01f,+8.08760524e-02f,
-7.72682130e-02f,+1.32313058e-01f,+2.24748388e-01f,+7.01716840e-02f,+2.85015553e-02f,
+9.16751549e-02f,-5.10973707e-02f,+2.44916365e-01f,+1.21578500e-01f,-1.02562346e-01f,
-8.32354575e-02f,-1.46720544e-01f,-5.69746532e-02f,-1.75637558e-01f,+2.26974607e-01f,
+5.70014082e-02f,-2.05319095e-02f,+1.22614071e-01f,+1.55088007e-01f,-7.35392720e-02f,
-1.82766274e-01f,-2.35140607e-01f,-1.63621604e-01f,-1.22657090e-01f,-1.41568735e-01f,
+2.38262601e-02f,+2.31780395e-01f,-8.82241875e-02f,-1.10756382e-01f,-1.92611158e-01f,
+1.69713870e-01f,+9.21050534e-02f,+2.50732701e-04f,-2.69225240e-02f,-5.15882224e-02f,
-1.19874589e-01f,-5.69479503e-02f,-2.51087487e-01f,+2.02992350e-01f,+1.20328432e-02f,
-1.69602722e-01f,-2.54476890e-02f,+1.89825237e-01f,+2.58195132e-01f,+1.42211085e-02f,
-2.71097366e-02f,-1.23894066e-01f,+6.17932826e-02f,-1.56820025e-02f,-1.06107660e-01f,
+1.82303831e-01f,-5.40118404e-02f,+4.05712612e-02f,+2.68386185e-01f,+1.31392673e-01f,
+1.40860230e-01f,-2.19796583e-01f,+1.97627828e-01f,+1.50756359e-01f,+5.90856783e-02f,
+2.04323381e-01f,-7.98785463e-02f,+1.61904357e-02f,+1.69929579e-01f,+1.50588155e-03f,
-4.52466458e-02f,+8.75939950e-02f,+1.90601960e-01f,+1.46955028e-01f,-5.49760088e-02f,
+1.57042608e-01f,+1.70660838e-01f,-7.35453367e-02f,-6.31663129e-02f,-1.67577684e-01f,
+9.60282534e-02f,-3.77211883e-03f,+2.29039058e-01f,-5.43139502e-02f,-1.56779453e-01f,
+6.28020167e-02f,-1.77254692e-01f,+1.89842924e-01f,+3.96623239e-02f,-1.36173055e-01f,
-1.67438406e-02f,+2.46189997e-01f,-3.05927061e-02f,+1.30454421e-01f,-2.14152738e-01f,
+1.87000826e-01f,+1.83555216e-01f,+6.38320372e-02f,+1.01223290e-01f,-2.01200143e-01f,
+1.80546969e-01f,-1.31311178e-01f,-1.36571124e-01f,+3.06043625e-02f,+2.33121753e-01f,
-1.70089215e-01f,-6.18364252e-02f,+2.51279354e-01f,+1.81822143e-02f,-1.99902266e-01f,
+1.87667698e-01f,-9.03044548e-03f,-9.55918953e-02f,+5.79788536e-02f,-2.25860417e-01f,
+1.05578169e-01f,+1.60377771e-01f,-5.47654144e-02f,+5.14845103e-02f,+1.23177581e-01f,
-1.94155499e-02f,+1.76527500e-01f,-1.01035990e-01f,+1.21771745e-01f,+9.03858170e-02f,
+8.54922980e-02f,-1.65628850e-01f,+1.73425168e-01f,-1.50075614e-01f,+8.79094079e-02f,
-5.64075485e-02f,+9.80523531e-04f,-4.15613577e-02f,+2.07745031e-01f,+9.18499380e-02f,
+2.05253109e-01f,-7.39513710e-02f,+9.41372514e-02f,-1.67245880e-01f,-2.04012200e-01f,
-9.36965272e-02f,-3.41904052e-02f,+1.91661760e-01f,+1.48154169e-01f,+8.41497332e-02f,
+1.41008288e-01f,+1.27994984e-01f,+1.24521032e-01f,+8.44641998e-02f,+1.82691902e-01f,
+6.92717582e-02f,-6.20068982e-02f,-1.28714949e-01f,+2.16727033e-01f,+1.12802073e-01f,
-1.48652405e-01f,+1.39943764e-01f,+1.04900822e-01f,-6.65139481e-02f,-2.20831241e-02f,
+2.27308989e-01f,+1.26059189e-01f,-2.03145236e-01f,-1.21313177e-01f,-4.37525995e-02f,
-2.57288534e-02f,+1.71393171e-01f,-4.14096192e-02f,-8.50810558e-02f,-1.29561692e-01f,
+6.25096634e-02f,+1.19832784e-01f,-1.47124588e-01f,+9.96790268e-03f,-7.49550834e-02f,
+8.32649246e-02f,-2.18878433e-01f,-1.18114211e-01f,-2.03494728e-01f,-1.86185524e-01f,
+2.07834944e-01f,-7.19442777e-03f,-1.87746257e-01f,-1.03360362e-01f,+1.78318098e-01f,
-7.89798871e-02f,+9.22556147e-02f,+1.26189142e-01f,-1.24179468e-01f,+1.76126644e-01f,
-1.77318484e-01f,-1.26385326e-02f,+1.71945691e-01f,+1.19502470e-01f,-5.52479550e-02f,
-1.27740100e-01f,+1.12286806e-01f,+1.74132511e-01f,+1.12505227e-01f,+1.63908496e-01f,
-3.47869210e-02f,+4.03744052e-04f,+1.49802566e-01f,+1.07069232e-01f,+9.19575170e-02f,
-6.34046420e-02f,+1.22683719e-01f,+8.22728779e-03f,+1.90002635e-01f,+2.34001987e-02f,
-7.60358199e-02f,-1.55032173e-01f,+8.54872763e-02f,+2.56586343e-01f,+1.27080932e-01f,
+9.57910344e-02f,-1.36077076e-01f,+7.75951147e-02f,+1.68180957e-01f,+1.77123863e-02f,
+8.20565745e-02f,+2.78552026e-02f,+2.21707702e-01f,+1.00917615e-01f,+1.12153366e-01f,
-1.72477048e-02f,-1.19137645e-01f,-1.53128684e-01f,-1.74008846e-01f,-3.53453495e-02f,
-1.78358927e-01f,-1.34240866e-01f,+1.17955096e-01f,-3.02512739e-02f,-1.43113628e-01f,
-2.08495423e-01f,+3.45733613e-02f,-1.10104837e-01f,-7.68183470e-02f,-1.24273315e-01f,
-6.46429360e-02f,-1.14911228e-01f,+1.67927846e-01f,-1.00027502e-01f,-2.11989075e-01f,
-4.15020362e-02f,+3.97437364e-02f,-1.64206401e-01f,-2.09089920e-01f,+1.31080061e-01f,
-2.17846185e-02f,+2.47968314e-03f,-1.60307020e-01f,-1.20608404e-01f,-2.02890500e-01f,
-1.11122020e-01f,-1.39317542e-01f,-1.70612186e-01f,+1.23766832e-01f,-1.76241472e-01f,
+1.72933370e-01f,-1.05534032e-01f,+1.49564639e-01f,-1.78164959e-01f,+5.69415987e-02f,
+1.34381458e-01f,-7.10713938e-02f,-4.41728858e-03f,+1.05536416e-01f,+4.68674861e-02f,
+1.63441166e-01f,-6.73349425e-02f,-6.82063326e-02f,+4.53755669e-02f,-8.29902217e-02f,
+2.19355896e-01f,+1.05863653e-01f,-3.31058092e-02f,+1.99162319e-01f,-6.43684641e-02f,
+2.02829972e-01f,+1.43192828e-01f,+9.79729220e-02f,-1.58605695e-01f,+1.89878270e-01f,
-1.64090693e-01f,+2.21715435e-01f,+1.67366654e-01f,+9.19222459e-02f,+5.10489233e-02f,
+1.25175435e-03f,+1.64441332e-01f,-2.27179274e-01f,-5.01193292e-02f,-5.27799129e-04f,
-1.15168139e-01f,-5.54797649e-02f,+2.82576978e-02f,+1.62275463e-01f,+1.16137579e-01f,
+3.80876921e-02f,+1.01124354e-01f,-1.81795955e-01f,+3.38841788e-02f,+1.32232914e-02f,
-1.88435629e-01f,+1.53690368e-01f,+1.72338054e-01f,+1.75565466e-01f,+1.86114460e-01f,
-1.61038697e-01f,+3.56635116e-02f,-3.28037911e-03f,-1.90594271e-01f,+3.68914530e-02f,
-1.41130701e-01f,+1.12627506e-01f,-2.38885675e-02f,-1.62449200e-02f,-8.38714615e-02f,
-1.75844237e-01f,+4.01453115e-02f,-1.47778049e-01f,-6.48653954e-02f,+1.58856988e-01f,
-1.44693255e-03f,-1.70865178e-01f,-1.14887543e-01f,+8.86642635e-02f,+1.19662061e-01f,
-1.74328923e-01f,+1.56528935e-01f,+8.16016570e-02f,+8.40813201e-03f,-3.66132036e-02f,
+2.04460710e-01f,+5.30313924e-02f,+2.12985307e-01f,+2.53438979e-01f,+2.15525463e-01f,
-2.97963638e-02f,+1.15338126e-02f,-9.33434069e-03f,+1.53746352e-01f,+8.84400308e-03f,
+1.99018285e-01f,+6.07749540e-03f,+5.04787490e-02f,+1.89148769e-01f,-1.70564994e-01f,
-7.89588615e-02f,-1.08014420e-01f,-5.21157235e-02f,-7.99528509e-02f,-1.75376777e-02f,
-1.50263250e-01f,-1.02113716e-01f,-1.84774101e-01f,-1.57215580e-01f,-8.47293511e-02f,
-4.38670143e-02f,-1.21459261e-01f,-1.06527582e-01f,+1.67048588e-01f,+1.10466778e-01f,
+1.71652377e-01f,-2.05788329e-01f,+8.64963457e-02f,+2.50942558e-01f,-8.36051777e-02f,
+1.23683494e-02f,+1.39825135e-01f,+1.63435921e-01f,-8.62366185e-02f,-1.08822420e-01f,
-5.74327707e-02f,-1.94881171e-01f,+2.01331526e-01f,+9.02850926e-02f,+1.05266415e-01f,
+1.81043483e-02f,+6.85453638e-02f,+1.42380327e-01f,+1.45714343e-01f,+1.85196519e-01f,
-2.72324029e-02f,-1.34382933e-01f,+1.07151762e-01f,-1.59128428e-01f,-1.50855333e-02f,
-1.65353939e-02f,+6.09001443e-02f,+1.68393448e-01f,-4.83508110e-02f,+7.02433065e-02f,
+1.17411047e-01f,-2.07411587e-01f,+8.23937580e-02f,+1.87751073e-02f,-1.92980021e-01f,
-1.64138407e-01f,+7.28985444e-02f,-9.86328349e-02f,+1.20440736e-01f,+1.95804238e-01f,
+1.58706397e-01f,-9.41430032e-03f,-6.16363287e-02f,-4.30663675e-02f,+9.66866612e-02f,
+1.93534970e-01f,-2.90100425e-02f,-2.31602386e-01f,-9.57402587e-02f,-1.03679731e-01f,
+1.40836701e-01f,+1.45322099e-01f,+1.55028149e-01f,+3.94635536e-02f,-1.22782566e-01f,
+1.00584865e-01f,+9.84032005e-02f,-3.78255248e-02f,-1.83067679e-01f,-1.86998039e-01f,
-1.38537645e-01f,+5.05285636e-02f,-4.12734374e-02f,-1.00026965e-01f,+2.44227067e-01f,
-1.75282910e-01f,-8.83536711e-02f,+9.33038071e-02f,+8.26434121e-02f,+1.81170687e-01f,
+4.27734628e-02f,-5.88289052e-02f,+1.42062023e-01f,-1.70395508e-01f,+1.80317938e-01f,
-4.36664652e-03f,+1.43297985e-01f,-1.95508391e-01f,-1.81877688e-01f,-1.28472671e-01f,
+3.43596786e-02f,+2.06407439e-02f,-2.63036899e-02f,-6.40802085e-02f,-6.57416135e-02f,
+6.48251325e-02f,-8.73535350e-02f,+9.21938196e-02f,-1.43155545e-01f,+1.94648862e-01f,
+1.17181823e-01f,-1.81077674e-01f,-7.80052841e-02f,-2.03368798e-01f,+2.03013495e-01f,
+1.52779073e-01f,+1.54600635e-01f,+2.42678627e-01f,+5.57863563e-02f,-2.39627138e-01f,
-1.05546616e-01f,+7.86522254e-02f,+6.31277114e-02f,+1.65454343e-01f,+1.06787220e-01f,
-1.33909285e-02f,-8.43372717e-02f,+6.26372099e-02f,+1.93689331e-01f,+1.81912467e-01f,
-1.07562460e-01f,-4.91841882e-03f,-5.67853488e-02f,+2.19850674e-01f,+6.30225465e-02f,
+1.55535445e-01f,+7.77311921e-02f,+1.57857165e-02f,+6.73703402e-02f,+1.83572039e-01f,
+1.08504817e-01f,+2.74464488e-03f,-7.68400431e-02f,-4.23195027e-02f,-2.04947844e-01f,
-4.90766540e-02f,+1.63928539e-01f,-1.66523978e-01f,-1.34715348e-01f,+9.95002612e-02f,
+2.25103781e-01f,+1.45616680e-01f,+1.83694705e-01f,-1.06378041e-01f,+4.38435264e-02f,
+1.11682951e-01f,+6.91922083e-02f,+1.00766182e-01f,+2.31775008e-02f,-1.84165657e-01f,
-1.38399806e-02f,+1.13867097e-01f,-1.23369381e-01f,-1.80494979e-01f,+5.11259213e-02f,
+1.76005557e-01f,+1.92176372e-01f,+3.65441591e-02f,-9.03876573e-02f,-1.57622486e-01f,
+1.59372404e-01f,+2.62371376e-02f,+6.83515221e-02f,-3.33132371e-02f,-1.14520788e-01f,
-1.47478342e-01f,+6.46235272e-02f,-7.99324960e-02f,-9.22707319e-02f,+1.56722993e-01f,
-2.72467136e-02f,-1.78854629e-01f,+1.42452061e-01f,-1.35348514e-01f,-1.49362788e-01f,
+1.93528995e-01f,+1.29247814e-01f,+1.98388755e-01f,+1.68668598e-01f,-2.95005888e-02f,
-7.38342628e-02f,+1.12831369e-01f,+3.87782045e-02f,-1.35220751e-01f,+1.96012765e-01f,
-1.69650644e-01f,-4.16848175e-02f,-2.65372060e-02f,-9.24090371e-02f,+4.58435342e-02f,
+1.48288131e-01f,-4.89898808e-02f,-4.59069163e-02f,+1.54414445e-01f,+1.89709678e-01f,
-1.60902619e-01f,+4.04809751e-02f,-7.95192197e-02f,+1.32141203e-01f,-1.51268408e-01f,
-2.14377031e-01f,+1.77268684e-01f,+1.83068097e-01f,-1.31272554e-01f,+1.33347034e-01f,
+7.96312615e-02f,-8.57146010e-02f,-4.04344052e-02f,-6.68165386e-02f,-7.64373839e-02f,
-2.14622810e-01f,-2.15432882e-01f,+8.82689878e-02f,-1.65213630e-01f,-1.81238160e-01f,
-2.35588938e-01f,-1.75392643e-01f,-6.16467744e-02f,+1.76353782e-01f,+1.15428165e-01f,
+1.53978735e-01f,+1.42358691e-01f,-6.63628653e-02f,-1.01787843e-01f,+4.14142348e-02f,
-6.13069721e-02f,-1.66334763e-01f,-1.78269833e-01f,-1.65891588e-01f,+3.40174176e-02f,
+6.32734299e-02f,-1.54128879e-01f,+1.43959029e-02f,+8.57423767e-02f,+1.58075407e-01f,
+2.35209197e-01f,-1.27813280e-01f,+2.25766987e-01f,+6.35717483e-03f,-1.58527970e-01f,
+3.59323770e-02f,-2.71226596e-02f,-5.07926270e-02f,-1.68295115e-01f,-1.52586016e-03f,
-1.51408464e-02f,+4.05153781e-02f,-9.29178968e-02f,-1.75027132e-01f,+2.03079790e-01f,
-1.16880760e-01f,+4.99167219e-02f,-5.08214757e-02f,+2.02812314e-01f,+1.40181892e-02f,
+2.62806565e-01f,+1.20830849e-01f,-1.18519343e-01f,+2.13992760e-01f,+3.23327333e-02f,
-1.96726307e-01f,-2.01213926e-01f,+2.64938436e-02f,-1.50256425e-01f,+1.59884766e-01f,
-1.71320617e-01f,-1.43141598e-01f,-6.35442361e-02f,+1.12626562e-02f,+1.50464773e-01f,
-1.27292708e-01f,-2.74165208e-03f,+1.37598172e-01f,+2.21504755e-02f,+8.50369316e-03f,
-8.48185346e-02f,-5.60009778e-02f,+2.23880503e-02f,-7.03968555e-02f,+2.16916323e-01f,
-1.34795457e-01f,+5.38523719e-02f,-6.30191118e-02f,-6.59582242e-02f,+1.96693197e-01f,
+1.99488521e-01f,+1.32630467e-01f,+6.80469815e-03f,+7.26888403e-02f,-1.58401147e-01f,
-1.97887734e-01f,-9.49250981e-02f,-8.73783529e-02f,-2.45582163e-01f,+9.72284079e-02f,
+2.41056010e-01f,+5.71936108e-02f,-1.05430201e-01f,-2.94161048e-02f,-3.97689529e-02f,
-1.68229610e-01f,+1.73168972e-01f,-1.29559338e-02f,-4.15504463e-02f,+1.04849264e-02f,
-1.89913705e-01f,+3.11316922e-02f,-1.60653308e-01f,-8.33251998e-02f,-1.05118550e-01f,
+1.63943917e-01f,-1.58479512e-01f,-1.67069063e-01f,+2.36576170e-01f,-1.77298754e-01f,
-1.27394542e-01f,+8.01846907e-02f,-1.62953928e-01f,-5.93442023e-02f,+1.68718934e-01f,
-2.80154049e-02f,-8.40076059e-02f,-1.50950089e-01f,+1.76999524e-01f,-1.27877772e-01f,
-1.76678434e-01f,+2.47600794e-01f,+2.40524486e-01f,-1.86086699e-01f,-7.41139501e-02f,
-5.77365160e-02f,+1.58212110e-01f,+7.48038366e-02f,+8.76362473e-02f,-2.45379105e-01f,
-2.18665689e-01f,-3.37376520e-02f,-3.12054567e-02f,-1.86479613e-01f,-2.27922335e-01f,
-2.08865955e-01f,+6.59647509e-02f,+1.14285685e-02f,-9.52989459e-02f,+1.19260877e-01f,
-7.14841187e-02f,+1.03605419e-01f,+6.44333959e-02f,-2.85586230e-02f,-1.13886654e-01f,
+6.28131302e-03f,-2.54532807e-02f,+3.61092687e-02f,-1.76207736e-01f,-1.15938634e-02f,
-1.51067257e-01f,+1.52871981e-01f,+1.68662712e-01f,+5.07973991e-02f,+3.13096084e-02f,
+8.46536234e-02f,+5.98515645e-02f,+1.76070720e-01f,-5.91891780e-02f,-4.14914042e-02f,
-1.04567066e-01f,+1.88562438e-01f,+2.83576618e-03f,-1.23567857e-01f,-1.13613285e-01f,
-8.70395452e-02f,+1.32343039e-01f,+4.35583331e-02f,+1.27406329e-01f,-1.71080604e-01f,
-1.91223338e-01f,+4.78233136e-02f,-4.05877158e-02f,+2.51044214e-01f,+8.45928341e-02f,
+1.22702688e-01f,-1.06457673e-01f,+2.05164447e-01f,-5.47174923e-02f,-2.00854808e-01f,
+4.98377942e-02f,-1.63579151e-01f,-1.81970775e-01f,+9.48943198e-02f,+1.24312811e-01f,
-2.22401455e-01f,-1.03528991e-01f,-1.57004759e-01f,-1.01591952e-01f,-1.81425020e-01f,
+1.23879217e-01f,+1.00157693e-01f,+2.00517178e-01f,+1.96602508e-01f,+1.41841710e-01f,
+2.32007474e-01f,+8.46537724e-02f,-1.64140508e-01f,+2.01489553e-01f,+1.08703434e-01f,
-1.51679814e-01f,-9.10172164e-02f,+2.81261280e-02f,-1.26515701e-01f,-7.53473788e-02f,
-2.13444158e-01f,-1.57209441e-01f,+2.61336088e-01f,-1.47273928e-01f,+1.85347274e-01f,
+8.60303268e-02f,+1.32954968e-02f,+9.93950218e-02f,+7.98446983e-02f,+2.85067055e-02f,
-1.07850388e-01f,+1.43519014e-01f,-1.06713153e-01f,-1.20673694e-01f,+1.71998113e-01f,
-8.85066912e-02f,+2.16245845e-01f,+1.36199832e-01f,-7.87196457e-02f,-2.05620125e-01f,
+1.06421143e-01f,+1.49926782e-01f,-1.19187288e-01f,+8.60705152e-02f,-7.90234357e-02f,
-1.15812331e-01f,-1.34178907e-01f,-1.27797678e-01f,+1.94039929e-03f,-2.81501878e-02f,
+2.22381815e-01f,+5.74017987e-02f,+1.35201037e-01f,+1.24430530e-01f,-1.14227422e-01f,
+1.73640698e-01f,+2.64292117e-02f,-1.14302978e-01f,-1.78382263e-01f,-1.67780474e-01f,
+5.76466545e-02f,+4.07502502e-02f,-1.79751664e-01f,-1.47540420e-01f,-1.00134909e-01f,
-1.02902405e-01f,+1.95925664e-02f,-2.76968330e-02f,-1.86657980e-01f,+1.20596357e-01f,
+1.87949672e-01f,-2.07450807e-01f,-9.60705429e-02f,+2.14043513e-01f,+1.57900468e-01f,
-2.66050268e-02f,+5.22241481e-02f,-9.47778448e-02f,-6.16871193e-02f,+5.44827469e-02f,
+2.03815326e-01f,-2.87525747e-02f,+1.00856930e-01f,+1.46873206e-01f,+1.18970722e-01f,
+2.06954896e-01f,-1.48086771e-01f,+1.24046065e-01f,+1.70576647e-02f,-4.80001792e-02f,
-1.33293808e-01f,+1.19536839e-01f,-4.91768271e-02f,+1.12679778e-02f,+6.41848072e-02f,
+2.43656218e-01f,+8.55373591e-02f,+1.40695140e-01f,-2.37739831e-01f,-1.95458643e-02f,
+1.34975165e-01f,-5.37811667e-02f,+1.54277742e-01f,-4.27998826e-02f,+9.53321308e-02f,
-1.77420788e-02f,-2.02326462e-01f,-1.97235644e-02f,-2.07003266e-01f,-1.19306169e-01f,
+2.09704727e-01f,-1.91266179e-01f,+4.05616909e-02f,+1.43685415e-01f,+1.10672414e-01f,
-2.21314430e-02f,+4.33963835e-02f,+7.56185427e-02f,+1.87093653e-02f,+1.37870744e-01f,
+2.78186742e-02f,+1.04484454e-01f,+1.95299342e-01f,+8.08867738e-02f,-6.33832961e-02f,
-3.72432619e-02f,-1.13160864e-01f,-2.59929728e-02f,-6.26495034e-02f,+2.31778353e-01f,
+6.94957078e-02f,+1.74682900e-01f,-1.21419124e-01f,+1.94340885e-01f,-8.94168690e-02f,
+2.90715061e-02f,-4.37784009e-02f,+6.30122274e-02f,+2.40291461e-01f,+1.34189278e-01f,
-7.70359263e-02f,+2.52216458e-02f,-1.32037282e-01f,+7.45681003e-02f,+8.78646448e-02f,
+6.84301481e-02f,+6.49487553e-03f,-1.53649539e-01f,+1.38667986e-01f,+1.45852277e-02f,
+6.51583523e-02f,-1.48975551e-01f,+2.37239644e-01f,-1.03411727e-01f,+1.15967430e-01f,
+1.24402530e-01f,+1.60687938e-01f,+2.63737530e-01f,+2.17298418e-01f,-2.84230188e-02f,
+3.45571488e-02f,+1.73755512e-01f,-1.96953878e-01f,+2.23353639e-01f,+1.01958513e-01f,
-1.44650176e-01f,+9.28337723e-02f,-1.31941333e-01f,-9.26107913e-02f,-1.03102185e-01f,
-1.85207650e-01f,-1.80734888e-01f,-5.25729880e-02f,-7.18505383e-02f,+1.94413532e-02f,
+2.00789601e-01f,+1.91754147e-01f,+6.44139294e-03f,+9.82154012e-02f,+1.37807027e-01f,
+1.02089308e-01f,+1.94938138e-01f,+1.06950454e-01f,+1.09447151e-01f,+7.64548853e-02f,
+9.98602509e-02f,+1.20148227e-01f,+1.17630050e-01f,-1.95725143e-01f,-1.65824562e-01f,
-1.96842700e-01f,-1.56360313e-01f,-1.08886488e-01f,-6.67742640e-02f,+1.90972582e-01f,
+1.58164099e-01f,-1.02278866e-01f,+9.07529593e-02f,+2.16321543e-01f,+1.06560819e-01f,
-1.49379283e-01f,-1.92043139e-03f,+1.16878860e-01f,+1.06723994e-01f,-2.39184983e-02f,
-7.83885866e-02f,+1.72715291e-01f,+5.69282733e-02f,+3.08314543e-02f,+1.92490220e-01f,
+1.50944188e-01f,-2.16838121e-01f,-1.33587554e-01f,+4.66963314e-02f,-1.11223482e-01f,
-1.62334785e-01f,-1.42213702e-01f,+1.62792638e-01f,+1.56072393e-01f,+7.86223188e-02f,
-2.11269841e-01f,+2.06704244e-01f,+1.42206311e-01f,+1.35691434e-01f,-1.59816071e-01f,
+1.75874621e-01f,-1.46490619e-01f,-1.75638646e-01f,+3.56866568e-02f,+9.86036956e-02f,
+6.45224005e-02f,+1.69946671e-01f,+5.12288287e-02f,-1.92359239e-01f,-3.25477123e-02f,
+1.01351120e-01f,+2.08755136e-01f,+1.19949564e-01f,+1.13419801e-01f,-2.02728480e-01f,
-6.50575608e-02f,+1.62503242e-01f,-3.49018015e-02f,+1.32628396e-01f,+2.53381729e-01f,
+1.43052623e-01f,-1.52540460e-01f,+1.58537537e-01f,-1.51734725e-02f,-1.13551788e-01f,
+1.19779721e-01f,-6.95388019e-02f,+2.44672745e-01f,-1.43028945e-02f,-9.22201872e-02f,
+6.43421039e-02f,+1.71126455e-01f,+5.86465076e-02f,+4.46333215e-02f,-1.36281669e-01f,
+3.24976444e-02f,+7.63197318e-02f,-6.10691449e-03f,+1.88902542e-01f,+2.00121835e-01f,
-1.81331456e-01f,-2.73748953e-03f,+1.78918049e-01f,+2.02216104e-01f,-3.03669032e-02f,
-8.78760740e-02f,+6.45843893e-02f,+3.42671685e-02f,-2.80022919e-02f,+2.42050231e-01f,
-2.18073115e-01f,-2.25164503e-01f,-1.25890628e-01f,-8.32294896e-02f,+4.70755436e-02f,
-1.63129464e-01f,-1.08875364e-01f,+4.51386906e-02f,-7.66430274e-02f,-1.27636775e-01f,
-5.14591709e-02f,+2.17600822e-01f,+1.94714755e-01f,-1.09549798e-01f,+2.33717561e-01f,
-1.45958969e-02f,-1.42776653e-01f,+2.25796402e-01f,-1.54472962e-01f,-1.43787593e-01f,
-4.05133981e-03f,-1.47510797e-01f,+2.13486746e-01f,+1.03175350e-01f,+2.13600770e-01f,
-8.59830454e-02f,-5.14723361e-02f,-1.02322802e-01f,-1.11254312e-01f,-1.71106234e-01f,
+1.59951285e-01f,+9.96169671e-02f,+1.53017258e-02f,-9.43526775e-02f,+1.33186221e-01f,
-2.29983971e-01f,-2.42156893e-01f,+1.42490640e-01f,+1.86981350e-01f,-3.04086804e-02f,
+6.04524463e-03f,+2.34984756e-01f,-5.67167252e-02f,-1.74567044e-01f,+9.58356038e-02f,
+2.03204975e-01f,-5.57488725e-02f,+2.27123037e-01f,+1.33473411e-01f,+1.05021991e-01f,
-5.06523661e-02f,+8.99006501e-02f,+5.28719276e-02f,+1.80493325e-01f,-1.01721272e-01f,
+5.07946461e-02f,+7.26387128e-02f,+1.96657985e-01f,-5.66281341e-02f,-5.81288934e-02f,
+1.77527070e-01f,-1.44037873e-01f,-1.71001405e-01f,-1.68697432e-01f,-2.04489473e-02f,
-1.55160904e-01f,-5.46882525e-02f,-7.81071112e-02f,+5.01973480e-02f,-2.03526348e-01f,
-1.28492355e-01f,-3.91502231e-02f,-4.82864529e-02f,-1.33486256e-01f,-1.51375294e-01f,
-1.13324136e-01f,+8.11809301e-03f,-1.43196747e-01f,-1.80558622e-01f,-1.06103443e-01f,
+1.67671189e-01f,-1.09507933e-01f,+2.01713786e-01f,-1.01518273e-01f,+1.91421613e-01f,
+1.95765004e-01f,-1.80287674e-01f,+1.27828017e-01f,-7.28528202e-02f,-1.05769984e-01f,
-2.09047794e-01f,-1.50516093e-01f,+1.21806100e-01f,-1.56653762e-01f,+1.21285871e-01f,
+1.78698942e-01f,+1.10626981e-01f,-5.19623458e-02f,-6.41239285e-02f,+5.78490049e-02f,
-9.31568965e-02f,-1.96566761e-01f,+1.51316062e-01f,+6.43970817e-02f,-1.53719932e-01f,
+6.94367737e-02f,+1.97328493e-01f,-1.69334620e-01f,-1.54085547e-01f,-1.87797487e-01f,
-1.81528553e-01f,+1.83046296e-01f,+6.43871874e-02f,-8.47060233e-02f,-1.52178109e-03f,
-1.29904866e-01f,-2.16072336e-01f,-9.92767066e-02f,-2.02890724e-01f,-1.55096099e-01f,
+1.01283237e-01f,-1.68384254e-01f,+1.93138823e-01f,-1.18178450e-01f,-8.92714262e-02f,
-6.34265989e-02f,+1.69513077e-02f,-1.16467774e-02f,-2.22746879e-02f,-3.83573472e-02f,
+8.19244832e-02f,-2.10921720e-01f,+1.47800237e-01f,+2.09645182e-01f,+1.11459538e-01f,
+1.67763993e-01f,-1.79553464e-01f,-9.72490609e-02f,+2.10799485e-01f,-3.78136113e-02f,
+1.72570884e-01f,-1.13871805e-01f,-1.16443761e-01f,+1.68246150e-01f,-2.02191800e-01f,
+1.07162111e-01f,+6.78952038e-02f,+1.14186957e-01f,+1.51439592e-01f,+9.85471904e-02f,
-7.98541456e-02f,-8.00504908e-02f,-1.92156047e-01f,+1.95887491e-01f,+1.62237540e-01f,
+6.37180433e-02f,-1.36703119e-01f,+9.04416665e-02f,+2.83712000e-02f,+2.20197633e-01f,
-5.72945997e-02f,+9.25898850e-02f,+1.13671925e-02f,+1.12641364e-01f,+2.30103210e-01f,
+2.37079367e-01f,+6.77422881e-02f,-1.98901743e-01f,+1.20352551e-01f,-9.12695378e-02f,
-1.54330075e-01f,-1.20953798e-01f,+1.26193243e-03f,+2.06982300e-01f,-1.01831004e-01f,
+6.88125147e-03f,-1.30729616e-01f,+1.50967892e-02f,-9.61052701e-02f,+9.35127884e-02f,
+1.03488732e-02f,-1.66688174e-01f,+2.94853225e-02f,+2.28282228e-01f,-1.44624487e-01f,
-6.93090931e-02f,-1.70184299e-01f,-1.60670117e-01f,-1.23937741e-01f,-1.09298564e-01f,
+1.53650165e-01f,+2.03487054e-01f,+1.45361453e-01f,-1.46525174e-01f,+1.55967221e-01f,
-7.83917401e-03f,-7.47501478e-02f,-1.38607457e-01f,-1.61044046e-01f,-3.61162983e-02f,
+2.54213577e-03f,+8.35591406e-02f,-1.47194445e-01f,-1.00841098e-01f,-1.31264359e-01f,
-1.96672797e-01f,-8.43051150e-02f,+9.10717547e-02f,-1.56686842e-01f,+1.25693008e-01f,
+2.47531265e-01f,+1.25845328e-01f,-1.25316575e-01f,-1.97336465e-01f,+1.15379661e-01f,
-7.55250230e-02f,+1.25909552e-01f,+9.22963396e-02f,-1.99658990e-01f,-8.20734724e-02f,
-2.00451151e-01f,+8.82685110e-02f,+5.44703789e-02f,-6.19941317e-02f,+1.19553551e-01f,
+7.70511106e-02f,+5.57426773e-02f,-7.75630698e-02f,+9.41154510e-02f,+9.88110229e-02f,
+4.65675555e-02f,+2.13727638e-01f,-1.34236693e-01f,-1.11351252e-01f,-1.41923726e-02f,
-1.61780626e-01f,-1.71999902e-01f,+2.26901606e-01f,-1.10137358e-01f,-1.70531824e-01f,
-2.17984229e-01f,+1.19473562e-01f,+8.45404789e-02f,+1.81711048e-01f,+1.48393646e-01f,
-5.72117530e-02f,+2.26503894e-01f,+4.73501235e-02f,+3.90991308e-02f,-3.32983583e-02f,
-2.18818218e-01f,-9.45168063e-02f,-3.50178257e-02f,+1.00478731e-01f,-1.61842048e-01f,
-9.41671506e-02f,+3.69811431e-02f,-1.41741008e-01f,-1.00152947e-01f,-1.80122286e-01f,
-1.05202764e-01f,+1.53165147e-01f,-1.93221852e-01f,+6.99328631e-02f,-8.55293963e-03f,
-8.24082941e-02f,-1.46470129e-01f,+2.09103718e-01f,-1.35320619e-01f,-1.92157894e-01f,
+6.47196397e-02f,-1.23401530e-01f,-6.65004365e-03f,+1.25635698e-01f,+1.56035259e-01f,
+3.84919941e-02f,+1.06672179e-02f,-1.89036518e-01f,+1.15637049e-01f,-1.06238142e-01f,
+1.67322293e-01f,+2.40006000e-01f,-2.45906264e-02f,+9.84210595e-02f,+5.59014641e-02f,
+1.75949141e-01f,+8.04919600e-02f,-1.42977998e-01f,+2.53374696e-01f,+9.16106105e-02f,
+2.52551675e-01f,+1.38065694e-02f,-1.56465486e-01f,+4.50986400e-02f,-3.03212497e-02f,
-1.16588026e-02f,-2.02979311e-01f,+1.78007670e-02f,+1.53621584e-02f,+4.43663374e-02f,
-1.10630035e-01f,+2.15673178e-01f,+2.66787738e-01f,-8.68557096e-02f,-1.02748953e-01f,
-1.30547971e-01f,+1.96918458e-01f,+2.72175018e-02f,+2.01044530e-01f,-2.21408620e-01f,
-9.34262946e-02f,-1.06328830e-01f,+9.99272019e-02f,-9.55125038e-03f,+1.47403538e-01f,
+1.20496310e-01f,-8.91675428e-02f,+4.02806420e-03f,+1.21638663e-01f,+1.29606515e-01f,
+1.29758179e-01f,-1.06910862e-01f,+1.20023660e-01f,+9.80192944e-02f,-5.35202622e-02f,
+1.43404201e-01f,-9.59788635e-02f,+8.78557712e-02f,-1.22945875e-01f,-1.33599728e-01f,
-1.98984578e-01f,-7.05187321e-02f,-1.39738068e-01f,-7.32780099e-02f,-1.84436709e-01f,
-1.19200327e-01f,-3.27807441e-02f,+8.14100429e-02f,+1.37162790e-01f,-8.54525715e-02f,
+2.13935301e-01f,+1.06284514e-01f,+1.43751636e-01f,+1.76052883e-01f,-1.58878490e-01f,
+8.44330341e-02f,+1.11178830e-01f,-4.72094044e-02f,+7.78445452e-02f,-7.65403137e-02f,
+1.69775426e-01f,+3.27183865e-02f,+7.25510065e-03f,-9.03250501e-02f,+7.62575213e-03f,
-3.41623314e-02f,+1.15486711e-01f,+6.29424080e-02f,+7.00034276e-02f,-1.86365843e-03f,
+1.39879212e-01f,-6.57660961e-02f,-6.19939566e-02f,-3.29951532e-02f,+6.60151988e-02f,
-1.94377705e-01f,-4.84485105e-02f,+1.79755330e-01f,-9.73257497e-02f,-8.23930725e-02f,
+1.81959979e-02f,-9.10538882e-02f,-2.61785351e-02f,-1.33122414e-01f,-7.78549686e-02f,
+1.19996563e-01f,+1.48399845e-01f,+1.80586860e-01f,+9.15651172e-02f,-1.55918419e-01f,
-1.52736129e-02f,-2.02981204e-01f,+2.51343660e-02f,+1.57931626e-01f,+1.94346875e-01f,
-5.22454940e-02f,+1.55973956e-01f,+2.35466897e-01f,-1.75395429e-01f,+1.64419994e-01f,
+7.31512159e-02f,-7.38653261e-03f,+1.60939824e-02f,+1.70193300e-01f,+1.22792087e-01f,
+2.30965227e-01f,+4.32783812e-02f,+1.92063913e-01f,-2.56953478e-01f,-5.38788326e-02f,
-1.12433620e-02f,+2.35783949e-01f,+1.03549480e-01f,+2.09877323e-02f,+1.78729996e-01f,
-8.39284435e-02f,+1.41128719e-01f,-2.40585059e-01f,+7.60112191e-03f,-7.33208433e-02f,
-1.25124931e-01f,-4.60305959e-02f,+1.27031609e-01f,-8.73004943e-02f,-8.22777823e-02f,
+1.25279605e-01f,+4.45952304e-02f,+1.12820625e-01f,+1.81979522e-01f,+1.19379058e-01f,
-1.45943716e-01f,+1.61013961e-01f,+2.15452030e-01f,+5.96705824e-02f,-5.76021560e-02f,
-2.49794215e-01f,+1.09478250e-01f,-1.84634313e-01f,+9.79198143e-02f,+8.69046077e-02f,
+1.42097920e-01f,-7.34532475e-02f,+1.73992589e-01f,+1.28113329e-01f,+9.01182070e-02f,
-7.07374960e-02f,-5.11361361e-02f,+2.31978089e-01f,+6.43329620e-02f,+1.10651001e-01f,
+1.28494009e-01f,-1.04212902e-01f,+1.62982821e-01f,+9.16824583e-03f,+9.85814556e-02f,
+1.14837242e-02f,-1.30207986e-01f,-1.64790362e-01f,-2.07786337e-01f,+1.53327256e-01f,
+1.37460545e-01f,+1.24755673e-01f,-7.59832114e-02f,+1.85742661e-01f,-1.72734141e-01f,
+1.85559586e-01f,-6.16164431e-02f,-6.03487641e-02f,+2.17469841e-01f,-5.97249391e-03f,
+4.84202765e-02f,+1.58075348e-01f,+2.53219120e-02f,+8.58038515e-02f,-1.59537103e-02f,
+7.03145340e-02f,+1.36552699e-04f,-1.20545499e-01f,+2.02496022e-01f,-9.74768549e-02f,
-2.27197111e-01f,-1.69569686e-01f,+2.12204263e-01f,-6.23436868e-02f,+1.70925409e-02f,
+2.26105943e-01f,-6.84991628e-02f,-1.78258792e-01f,-1.64246783e-01f,+1.63742378e-01f,
+1.26311973e-01f,-1.96370155e-01f,+8.89772922e-02f,-2.14909427e-02f,-1.42286658e-01f,
+1.71705019e-02f,-9.56349820e-02f,+1.44004971e-02f,+1.31173536e-01f,+4.42383699e-02f,
-7.79010206e-02f,-5.46640009e-02f,+1.57319739e-01f,+1.47608534e-01f,-6.58642873e-02f,
-1.79956585e-01f,-1.71506703e-02f,+1.32350937e-01f,+2.27612555e-02f,+1.20908409e-01f,
-1.16298862e-01f,+1.83656260e-01f,+1.01291038e-01f,-1.25778899e-01f,-1.46454230e-01f,
+1.35722071e-01f,+1.85909554e-01f,-1.20498933e-01f,+2.80222483e-02f,+4.93779555e-02f,
+2.05495998e-01f,+2.38150209e-02f,+1.54050037e-01f,+1.85075998e-01f,-1.28852248e-01f,
-1.38074875e-01f,+6.21692091e-02f,+1.46535113e-01f,+1.03153452e-01f,-6.94375932e-02f,
-1.99534908e-01f,+6.46069646e-04f,-7.27887601e-02f,-9.30339098e-04f,+1.45139739e-01f,
-2.60189921e-02f,+1.90082148e-01f,+2.03360036e-01f,-2.11031929e-01f,+1.11735597e-01f,
+1.43934861e-01f,-2.99125612e-02f,-1.88482061e-01f,+5.97154349e-02f,+1.64402261e-01f,
+1.83830097e-01f,+1.69180050e-01f,-5.95736504e-02f,-1.89194202e-01f,+1.20323583e-01f,
+6.77373260e-02f,+2.01582178e-01f,-2.72698700e-03f,+5.96925169e-02f,-1.30765110e-01f,
+2.04857603e-01f,+1.94373652e-01f,+1.45609781e-01f,-1.13296002e-01f,+9.27073509e-02f,
-4.35644388e-02f,+2.51688212e-02f,+3.23768705e-02f,+1.25333369e-02f,+1.46175489e-01f,
+7.73771852e-02f,+5.44729978e-02f,-2.00157687e-01f,+4.38204557e-02f,+1.79330096e-01f,
+1.99545339e-01f,+7.08831996e-02f,+7.31637627e-02f,-2.10026756e-01f,-8.82454962e-02f,
+5.49089164e-02f,+2.62675285e-02f,+1.76984981e-01f,-1.13247328e-01f,-1.23772159e-01f,
-4.19032276e-02f,+1.32806435e-01f,-5.78773320e-02f,+8.02053958e-02f,-6.16252422e-02f,
+1.20891139e-01f,-6.40730262e-02f,+4.80434299e-03f,-1.02580801e-01f,-4.04677987e-02f,
-4.67833616e-02f,-1.10865690e-01f,+5.65812699e-02f,-1.24832250e-01f,+4.36230097e-03f,
-7.87222236e-02f,-2.49921679e-01f,+1.96640745e-01f,+1.44664899e-01f,+1.93644650e-02f,
+1.98389590e-01f,+3.84218991e-02f,-2.18247831e-01f,+6.77673072e-02f,-1.51998550e-01f,
+2.35637352e-01f,+3.02133821e-02f,+4.72718291e-02f,+1.74852759e-02f,+1.29398689e-01f,
+1.94052637e-01f,-1.46974161e-01f,+1.80118993e-01f,+1.97138041e-01f,+1.01116084e-01f,
+7.66601190e-02f,+1.04793236e-01f,+2.11947888e-01f,+1.84857816e-01f,-1.73924770e-02f,
+3.24428105e-03f,+6.60790224e-03f,+2.05299854e-01f,+2.12133780e-01f,+1.26469955e-01f,
+1.79527894e-01f,+1.23333149e-01f,-9.26648900e-02f,+3.38344723e-02f,+1.58320606e-01f,
-1.65822655e-01f,-1.21315243e-02f,+1.56562567e-01f,+4.35706712e-02f,-2.02708971e-02f,
+1.60574153e-01f,+4.72687706e-02f,+7.62361288e-02f,+1.33059636e-01f,+1.39770195e-01f,
+8.31002370e-02f,+1.20893307e-01f,+6.57297373e-02f,+1.57023653e-01f,-1.93051264e-01f,
-4.11731005e-03f,+6.07974753e-02f,+1.69784471e-01f,+1.20414108e-01f,+3.59040089e-02f,
+1.82897046e-01f,+1.91347465e-01f,+1.15637414e-01f,-1.88856959e-01f,+5.18704590e-04f,
-3.28497551e-02f,-1.04836442e-01f,-6.43838197e-02f,-3.40174921e-02f,-1.81466907e-01f,
-2.17514813e-01f,+1.38763919e-01f,-1.88804522e-01f,-5.23185283e-02f,-1.40600773e-02f,
+2.08598942e-01f,+1.01325795e-01f,-7.14168996e-02f,+1.59546584e-01f,+1.67423248e-01f,
-1.47122845e-01f,-1.43097237e-01f,-6.74716085e-02f,+6.49433807e-02f,-1.49019539e-01f,
+1.68377742e-01f,+6.08329326e-02f,+5.37078939e-02f,+2.23492235e-02f,-1.14758514e-01f,
+7.54351839e-02f,-2.46424787e-03f,+3.81964818e-03f,-1.18080527e-01f,-1.31920516e-01f,
-1.37986362e-01f,+7.13550523e-02f,+1.64519981e-01f,+7.40772486e-02f,-1.58486545e-01f,
-6.13082871e-02f,+5.11566140e-02f,-1.02054074e-01f,+1.81150451e-01f,+6.44837618e-02f,
+6.54768338e-03f,+1.67844251e-01f,-9.50489417e-02f,+1.89436451e-01f,-1.80277988e-01f,
+1.43221021e-01f,+8.83207843e-03f,+1.53653342e-02f,-1.82219267e-01f,+2.02969790e-01f,
+3.72117646e-02f,+9.46827158e-02f,-1.14447273e-01f,+1.37198448e-01f,+7.37028420e-02f,
+6.10483699e-02f,-1.43958643e-01f,-2.83054300e-02f,+1.27545029e-01f,+1.34550944e-01f,
-8.45175013e-02f,-6.07671663e-02f,+1.91609841e-02f,+1.67797282e-01f,-1.35065839e-01f,
+1.27044454e-01f,+1.32416427e-01f,-1.84214875e-01f,-4.22201157e-02f,-2.00686246e-01f,
+9.65800732e-02f,-2.14198887e-01f,-1.85587198e-01f,+5.79944551e-02f,-1.67225242e-01f,
-5.98376617e-02f,+1.58899426e-01f,+2.14733630e-01f,-2.09536478e-02f,-8.07831623e-03f,
-1.52192116e-01f,-1.79028124e-01f,+1.15711942e-01f,+3.49255055e-02f,+3.31714079e-02f,
-7.38951713e-02f,-1.90729737e-01f,+1.55634537e-01f,-8.90052915e-02f,+4.57239784e-02f,
+1.48438320e-01f,+1.15212649e-01f,-1.59496188e-01f,-4.40065898e-02f,-4.50119041e-02f,
-1.17363088e-01f,+1.23014875e-01f,+2.50901580e-02f,+7.13142008e-02f,-1.22272253e-01f,
-1.61312655e-01f,+1.16261885e-01f,-2.02328533e-01f,-5.37975132e-03f,-1.14810511e-01f,
-9.62798893e-02f,-1.14360385e-01f,-1.49684697e-02f,+1.45810679e-01f,+1.91199854e-01f,
-3.75405252e-02f,+1.70280576e-01f,+1.65277109e-01f,+1.71522245e-01f,-4.75879349e-02f,
+7.09889233e-02f,-1.20455526e-01f,-1.71506435e-01f,+2.13347301e-01f,+6.67782724e-02f,
+3.04900222e-02f,-1.60701990e-01f,-1.50215939e-01f,-1.28905058e-01f,+1.87213477e-02f,
-4.04430553e-02f,-5.72167821e-02f,+1.90504238e-01f,-2.11746037e-01f,+1.11306503e-01f,
-1.92025453e-01f,-3.62622887e-02f,+1.98277190e-01f,+9.65376198e-03f,-1.34264678e-01f,
-8.35464001e-02f,+1.38197944e-01f,+1.31717846e-01f,+2.08939865e-01f,-2.57249624e-02f,
-7.18715489e-02f,+9.75604802e-02f,+1.85405612e-02f,+1.07395992e-01f,+1.93474725e-01f,
+6.61860555e-02f,+4.00078148e-02f,-1.08217299e-01f,-1.90142393e-01f,+1.67306587e-01f,
-7.80327022e-02f,+1.69875070e-01f,-1.98455900e-02f,+1.98747769e-01f,+1.15125015e-01f,
-9.71555784e-02f,+1.37776628e-01f,+4.28478569e-02f,-4.48450595e-02f,-1.75060779e-01f,
-7.83316791e-02f,+4.85260636e-02f,+1.24842897e-01f,-1.86436474e-02f,-1.61631644e-01f,
-1.26095325e-01f,+5.55738807e-04f,+7.24665672e-02f,-3.24471742e-02f,+1.60161123e-01f,
-1.05633087e-01f,-1.64372563e-01f,+4.72365171e-02f,+9.03272480e-02f,-1.08389914e-01f,
-9.41472128e-02f,-7.75513500e-02f,-1.32355541e-02f,+1.54326394e-01f,+1.10691443e-01f,
-1.43550038e-01f,-1.34121835e-01f,-1.51084512e-01f,+1.25469491e-01f,-1.98073417e-01f,
+1.16643503e-01f,-8.52114707e-02f,-2.07114518e-02f,+2.13037118e-01f,-8.57437700e-02f,
-5.80301285e-02f,+1.58261523e-01f,-1.28794029e-01f,+2.99261995e-02f,+1.64229974e-01f,
+1.51794717e-01f,-8.54728222e-02f,+1.22846864e-01f,+5.93489781e-03f,+1.93539366e-01f,
+1.89001054e-01f,+1.21818088e-01f,-1.95375323e-01f,+2.04563513e-02f,+1.31350607e-01f,
-3.78039735e-03f,+5.19230478e-02f,+1.22947328e-01f,+1.24140583e-01f,-1.51824549e-01f,
-2.09947780e-01f,-3.01076714e-02f,+1.41260698e-01f,+2.69243419e-02f,+1.35112107e-01f,
-1.19570047e-01f,+9.62504148e-02f,+1.21100590e-01f,+2.02094615e-01f,+1.78377733e-01f,
+1.06635526e-01f,-1.37566879e-01f,-6.24731481e-02f,-1.50959864e-01f,+1.90660134e-01f,
-2.62118988e-02f,+1.79147765e-01f,-1.70065120e-01f,-1.41383529e-01f,-1.75756291e-01f,
-7.02023879e-02f,+2.50846148e-02f,-6.32982105e-02f,+2.44903609e-01f,+1.74683765e-01f,
-8.98692831e-02f,+1.98874503e-01f,-4.87146005e-02f,+5.55220013e-03f,-1.67050079e-01f,
+1.99011832e-01f,-5.20036072e-02f,+1.96034491e-01f,-3.11792735e-02f,-1.60204709e-01f,
+1.87466890e-01f,+2.50212461e-01f,-1.33381173e-01f,+7.68420845e-03f,+1.76580861e-01f,
+1.12205841e-01f,+1.95542797e-02f,-1.37337968e-01f,-1.70989633e-01f,-1.00034282e-01f,
+1.60092816e-01f,-1.40980911e-02f,-4.57678773e-02f,-1.15373433e-01f,+1.27199367e-01f,
+1.14823505e-01f,+6.00296855e-02f,+1.79600388e-01f,-1.52421743e-01f,+4.44894880e-02f,
-4.72810790e-02f,-1.07699461e-01f,+3.90084460e-02f,+1.62398741e-01f,-1.71988174e-01f,
-1.88021004e-01f,-1.14350013e-01f,+1.59332946e-01f,+1.99274331e-01f,-1.79916844e-01f,
-6.95934892e-03f,-5.01640439e-02f,+1.07136950e-01f,+1.37391776e-01f,-1.96368903e-01f,
+7.16000870e-02f,-1.26575992e-01f,-1.54334188e-01f,-1.24291088e-02f,+1.91274419e-01f,
+3.08573544e-02f,+7.24684298e-02f,-2.00631067e-01f,-7.54593387e-02f,-9.97396782e-02f,
-7.76702762e-02f,+1.10935360e-01f,+7.14535862e-02f,+1.68685511e-01f,-1.70980409e-01f,
+7.76109099e-02f,+1.79829687e-01f,+6.61213174e-02f,-5.01045585e-03f,+3.40887755e-02f,
+7.56987035e-02f,+1.60028145e-01f,+7.99781233e-02f,+8.29160213e-02f,+1.37864053e-01f,
+1.80915624e-01f,+3.45067047e-02f,+1.22156225e-01f,-1.12265438e-01f,-1.22119367e-01f,
+4.55336459e-02f,+8.32552761e-02f,-3.62460725e-02f,-1.59713835e-01f,-1.43583521e-01f,
+5.89282531e-03f,-9.78437215e-02f,+2.49617230e-02f,+9.63313356e-02f,-3.40910768e-03f,
+6.40671551e-02f,+5.51970713e-02f,-1.74858004e-01f,+2.49804668e-02f,-1.72700137e-01f,
-6.47789910e-02f,+3.48271355e-02f,-3.83826904e-02f,+3.64101753e-02f,-7.39184245e-02f,
+4.61652763e-02f,+2.15375915e-01f,+1.91878229e-02f,+8.69813096e-03f,-9.27192792e-02f,
-2.15795580e-02f,+1.27595384e-02f,-1.46191597e-01f,-1.18400611e-01f,+1.25707909e-01f,
+5.02179116e-02f,+7.67165571e-02f,-8.74921158e-02f,-1.01470560e-01f,-1.26859367e-01f,
-1.16153091e-01f,+1.45426378e-01f,+1.73598811e-01f,-1.15981959e-01f,-1.95092276e-01f,
+2.33864859e-01f,+1.48241669e-01f,-9.98251364e-02f,-1.57588154e-01f,-1.73522621e-01f,
-1.53051153e-01f,+1.05398215e-01f,+5.11459857e-02f,+2.87922341e-02f,+4.78414726e-03f,
-1.76169708e-01f,-1.03509359e-01f,+2.53186285e-01f,+1.64959878e-02f,+1.59014091e-01f,
+1.06851660e-01f,-6.95232823e-02f,+9.62502360e-02f,+4.83695753e-02f,-1.03482790e-02f,
+4.58361721e-03f,+3.42001319e-02f,-4.15601060e-02f,-1.77707121e-01f,-3.58702429e-02f,
-9.03556347e-02f,-3.01978942e-02f,+1.92085996e-01f,-2.22622920e-02f,-6.48033544e-02f,
+7.19277710e-02f,+3.27212438e-02f,+1.64238468e-01f,+3.75283659e-02f,-1.21646821e-01f,
+1.29195198e-01f,-1.47750542e-01f,+1.41194925e-01f,+3.44170183e-02f,+1.92399845e-01f,
+1.15761444e-01f,+2.00363785e-01f,+2.00695261e-01f,-1.24643303e-01f,-7.37968236e-02f,
+1.49101958e-01f,+4.38374188e-03f,+1.76750541e-01f,+2.13831976e-01f,+1.76478148e-01f,
+1.58821061e-01f,+1.74883306e-01f,+5.37576601e-02f,+9.68349501e-02f,+1.27967680e-04f,
-8.26649964e-02f,+4.56463173e-03f,+4.82906662e-02f,-6.31702095e-02f,+1.72826797e-01f,
+2.16847640e-02f,+3.73209640e-02f,+1.11149922e-01f,-7.47250617e-02f,-1.34214386e-03f,
+2.40365088e-01f,+5.82449660e-02f,-1.45427033e-01f,+1.00223720e-03f,-1.74027503e-01f,
-2.09374726e-02f,-1.84302464e-01f,-1.53861567e-01f,+6.97147250e-02f,-6.43741563e-02f,
-1.05967566e-01f,-7.88061470e-02f,-2.37854850e-02f,+1.74003899e-01f,-2.22092986e-01f,
+1.48019925e-01f,-1.55289754e-01f,+1.20898113e-01f,-7.91285336e-02f,-2.43253317e-02f,
-2.01398045e-01f,+1.68182939e-01f,-3.00594941e-02f,+1.22172140e-01f,-1.35833770e-01f,
-8.46778154e-02f,-5.44809848e-02f,+1.56797677e-01f,-6.89484254e-02f,+1.18016399e-01f,
-7.72483572e-02f,+5.61962239e-02f,-1.12367578e-01f,-1.21409342e-01f,-1.01866938e-01f,
+7.86199123e-02f,-1.40100777e-01f,-1.41356528e-01f,-1.69869557e-01f,+1.63615525e-01f,
-1.99430268e-02f,+2.16091946e-01f,-5.42474426e-02f,-4.23795544e-02f,+1.78983927e-01f,
+2.74415058e-03f,-1.17114216e-01f,+5.70360571e-02f,-8.36118534e-02f,-1.86652109e-01f,
+1.38972074e-01f,+1.31615058e-01f,+3.04795057e-02f,+7.56267831e-02f,-1.01511627e-02f,
+1.45500913e-01f,-4.37572896e-02f,+6.84269518e-02f,-1.96981370e-01f,+7.77805895e-02f,
-1.16401464e-01f,-1.59491628e-01f,+1.36825740e-02f,+1.81166276e-01f,+3.52347791e-02f,
+8.34768489e-02f,+4.66057919e-02f,-2.01668173e-01f,+1.50192961e-01f,+1.73686400e-01f,
-3.35570872e-02f,-3.66136581e-02f,+4.10310775e-02f,-1.43993229e-01f,-1.63126916e-01f,
+1.84757903e-01f,+1.33764580e-01f,-8.44353288e-02f,-1.45341575e-01f,+6.84479028e-02f,
-1.91383064e-01f,-1.99420422e-01f,-1.82619810e-01f,+7.80162513e-02f,+2.15308562e-01f,
-8.10575336e-02f,-1.46378338e-01f,+1.32508382e-01f,-6.26497194e-02f,-4.99354750e-02f,
-1.95479184e-01f,+1.98098421e-01f,+1.21607259e-01f,-1.52042642e-01f,-1.14054367e-01f,
+5.15246838e-02f,-1.91619232e-01f,-1.25031903e-01f,-8.75929929e-03f,+1.82501867e-01f,
-7.35991970e-02f,+5.64297885e-02f,+9.39931273e-02f,-1.73988536e-01f,-8.50827023e-02f,
+2.09800154e-02f,-2.36625150e-01f,+3.18299234e-02f,-9.74216759e-02f,+4.85964306e-02f,
-1.45385250e-01f,+1.61742806e-01f,+9.89447087e-02f,+2.09142849e-01f,+1.01239167e-01f,
-1.02111049e-01f,-2.00320289e-01f,+8.67035910e-02f,+2.04318300e-01f,-1.09317705e-01f,
-1.42786533e-01f,+8.56643319e-02f,-6.57208934e-02f,-1.03883199e-01f,-6.81127310e-02f,
+1.92006901e-01f,-5.46361431e-02f,-1.80037737e-01f,-1.95742026e-02f,+8.57958421e-02f,
+4.46564220e-02f,+1.45684794e-01f,-1.88118085e-01f,-2.22555771e-01f,-2.04389006e-01f,
-1.31503716e-01f,-6.37684241e-02f,-1.82973787e-01f,-2.00492933e-01f,+1.60245880e-01f,
+2.40990013e-01f,+1.71876594e-01f,-4.35744971e-02f,-1.85961470e-01f,-1.58882767e-01f,
+1.83012158e-01f,-3.56748104e-02f,-7.44829476e-02f,+2.92139146e-02f,-3.89220007e-02f,
-1.11500069e-01f,+1.01059899e-02f,-1.11027136e-01f,+6.62021339e-02f,-1.17050871e-01f,
-2.00973839e-01f,+1.83803022e-01f,-3.60557102e-02f,+7.02336580e-02f,+1.57625765e-01f,
-1.25298262e-01f,+1.65454507e-01f,-1.93929762e-01f,-1.68269843e-01f,-1.21710643e-01f,
-2.27911919e-02f,-1.29285395e-01f,+1.08713388e-01f,-5.51321078e-03f,+1.14625692e-01f,
-8.20870623e-02f,+1.35819182e-01f,-1.33711353e-01f,-1.90670669e-01f,-7.62411654e-02f,
-3.42379287e-02f,-1.63725968e-02f,+2.33553961e-01f,+1.28640503e-01f,-1.65185452e-01f,
+9.57039669e-02f,+8.28049332e-02f,-1.69466034e-01f,-1.70173049e-01f,-1.49568379e-01f,
-1.48000896e-01f,+1.55697718e-01f,+1.95470706e-01f,+5.02852090e-02f,+1.31924987e-01f,
-2.55417097e-02f,-5.47341295e-02f,-4.06254791e-02f,+1.97445661e-01f,+1.25591129e-01f,
-5.64062446e-02f,+1.85765587e-02f,+1.54882520e-01f,-1.56802878e-01f,-1.54083878e-01f,
-9.66357067e-03f,+1.98827729e-01f,+1.14761956e-01f,+4.21247110e-02f,-6.28470406e-02f,
-1.20040230e-01f,-1.30625457e-01f,+1.48882389e-01f,-1.64263789e-02f,-1.17176399e-01f,
-1.68561116e-01f,-8.22255462e-02f,+5.82916010e-03f,-1.96351811e-01f,+1.63830638e-01f,
-1.57050386e-01f,-6.06344454e-02f,+2.21610248e-01f,-3.22238356e-02f,+9.77440327e-02f,
+1.22705705e-01f,-8.34093317e-02f,-2.50689816e-02f,-4.81519774e-02f,+2.29533594e-02f,
-4.57788520e-02f,-1.53629109e-01f,+8.47473647e-03f,+2.43736789e-01f,-1.50331542e-01f,
+2.27831602e-01f,-2.91556232e-02f,-2.07225725e-01f,+9.16240662e-02f,+5.01486026e-02f,
-6.98808953e-02f,+1.14393018e-01f,+1.48903236e-01f,+2.43915260e-01f,-1.29772007e-01f,
+2.97564641e-02f,-4.48135622e-02f,+2.36167818e-01f,-5.79304472e-02f,+6.32138401e-02f,
+7.27630332e-02f,-1.86029673e-02f,+1.86497092e-01f,+6.77359477e-02f,+1.68339491e-01f,
-6.37654960e-02f,-1.28224883e-02f,+5.27799949e-02f,+1.68549418e-01f,-1.04262553e-01f,
+9.63408649e-02f,+5.69018647e-02f,+1.89302593e-01f,+1.98654398e-01f,-1.85502172e-02f,
+2.28506491e-01f,-1.44362584e-01f,+7.66731054e-02f,+1.41578615e-01f,-1.11736342e-01f,
+2.56407142e-01f,+8.52587149e-02f,+8.74356702e-02f,-1.56504735e-02f,-1.90238863e-01f,
-9.15389434e-02f,-1.26244739e-01f,+1.62237152e-01f,+1.39866754e-01f,+9.81897488e-02f,
+1.95871908e-02f,-1.26604512e-01f,-7.01340884e-02f,-8.14569220e-02f,-1.73891127e-01f,
+1.12387098e-01f,+8.33550990e-02f,+7.79844820e-02f,+2.57485032e-01f,-1.66993737e-01f,
-1.05845422e-01f,+2.00755879e-01f,-1.94467798e-01f,-3.94463092e-02f,+8.90951953e-04f,
+2.09595144e-01f,+5.24801016e-02f,+2.98590232e-02f,+1.27655402e-01f,-7.89587125e-02f,
-1.06119484e-01f,-1.16013266e-01f,-1.01601809e-01f,+4.23515886e-02f,-2.10409029e-03f,
-1.16840072e-01f,+2.02376485e-01f,-1.74567893e-01f,-1.05353827e-02f,+3.80428173e-02f,
-1.79289039e-02f,-1.71162412e-01f,+1.20745070e-01f,-1.70975327e-01f,+1.71647027e-01f,
-1.48608297e-01f,-1.17289007e-01f,+1.67136982e-01f,+1.20984137e-01f,-1.36379659e-01f,
-1.45042181e-01f,-1.18514784e-01f,+1.24461107e-01f,+7.97799304e-02f,-1.21723093e-01f,
+4.35700789e-02f,+4.00911160e-02f,-8.89936239e-02f,+3.83591205e-02f,+1.17394015e-01f,
-1.78614050e-01f,+1.98613301e-01f,+1.43429995e-01f,+7.36199394e-02f,+1.35871455e-01f,
-1.97249830e-01f,+1.43786401e-01f,-1.69199213e-01f,-2.02475384e-01f,-1.19894221e-01f,
-3.95897031e-02f,-1.57807544e-01f,-2.25705191e-01f,-1.98426679e-01f,+2.21573800e-01f,
+2.18102738e-01f,+1.37267813e-01f,+5.72746731e-02f,+8.69456008e-02f,-1.24304816e-01f,
+1.04968198e-01f,-1.33239567e-01f,-1.67035922e-01f,-1.74778983e-01f,+1.29212663e-01f,
+8.19713250e-02f,-1.11434765e-01f,+1.31737739e-01f,+8.33634436e-02f,+8.05150121e-02f,
-7.52589330e-02f,+2.40978718e-01f,+4.38207835e-02f,+7.47158378e-02f,-9.22543928e-02f,
-9.63473022e-02f,+2.05736309e-01f,+1.25624284e-01f,+1.20518349e-01f,+9.04910713e-02f,
+1.84813499e-01f,+9.27547067e-02f,+1.53658584e-01f,-1.26614198e-01f,-3.70033681e-02f,
-1.90013230e-01f,+1.04826070e-01f,-1.73073590e-01f,-1.69570491e-01f,-7.10953921e-02f,
-6.86155483e-02f,-1.67714864e-01f,-1.30342975e-01f,-5.81270456e-02f,+1.18021101e-01f,
-1.28917202e-01f,+4.24596714e-03f,+1.05254911e-01f,-8.12928006e-02f,-1.33125454e-01f,
-9.78550091e-02f,+2.70557683e-02f,-6.23072833e-02f,+1.38322815e-01f,+1.30589291e-01f,
-1.64463520e-01f,+8.94525498e-02f,-1.95516825e-01f,+2.58544415e-01f,+2.53618836e-01f,
-7.41927251e-02f,+1.93029642e-01f,-1.93733528e-01f,+1.13520510e-01f,-2.24454388e-01f,
+1.72071144e-01f,+1.52228579e-01f,+8.99562836e-02f,+1.27220079e-01f,+2.65993923e-01f,
-1.78571492e-01f,-6.41014725e-02f,+2.19810680e-01f,+3.95745412e-02f,+4.43760492e-02f,
+1.33355364e-01f,+1.00588143e-01f,+2.04110548e-01f,-5.77601008e-02f,-1.26985893e-01f,
-2.11464372e-02f,-5.81888249e-03f,-7.10034370e-02f,+7.70865977e-02f,+6.58006594e-02f,
-6.07416853e-02f,-1.97148353e-01f,+7.88373277e-02f,+1.63049266e-01f,-1.72503650e-01f,
+1.70261711e-01f,+1.91789597e-01f,+6.19951822e-02f,+1.24505624e-01f,+3.05456910e-02f,
+2.24562719e-01f,+1.93551630e-01f,+2.52524048e-01f,-2.66056880e-02f,+1.38328046e-01f,
-1.58504888e-01f,-2.18563512e-01f,-1.60497352e-01f,-1.01230025e-01f,-4.52256761e-02f,
-6.28527701e-02f,-1.35077136e-02f,+5.03824092e-02f,-1.83604419e-01f,+2.75115445e-02f,
-2.13629678e-01f,+1.19183287e-01f,-1.69384852e-03f,-1.35884464e-01f,+2.12912232e-01f,
+9.02356803e-02f,-1.45469800e-01f,+5.16298711e-02f,+6.24136999e-02f,-1.48335636e-01f,
-9.16473940e-03f,+2.36873794e-02f,+1.39863685e-01f,+1.07076697e-01f,+1.34566560e-01f,
-1.38551697e-01f,-1.87978640e-01f,+1.84938073e-01f,+9.89220738e-02f,+2.06326142e-01f,
+6.75238594e-02f,+2.12622568e-01f,+1.86649099e-01f,+9.85774696e-02f,+9.87410918e-03f,
-6.56221062e-02f,+3.97775546e-02f,+2.22860768e-01f,+3.60496193e-02f,+2.47666597e-01f,
+7.59720504e-02f,+1.97059512e-01f,-1.80052333e-02f,-9.50532854e-02f,+4.39666212e-02f,
+1.25622004e-01f,+1.17543049e-01f,-1.39072211e-02f,-7.44871125e-02f,+1.92282438e-01f,
-1.00146905e-01f,+1.55556098e-01f,+1.95179239e-01f,-4.83970903e-02f,-1.16748065e-01f,
+1.87926844e-01f,+1.57364324e-01f,+6.82645589e-02f,+1.76859230e-01f,-1.35816753e-01f,
+2.35870481e-01f,-5.03358692e-02f,+1.18331321e-01f,+1.20329391e-02f,+1.13894224e-01f,
-3.16879600e-02f,+2.26799488e-01f,+1.95142075e-01f,-1.90275878e-01f,+4.72488552e-02f,
+6.66283071e-02f,-1.17604867e-01f,-1.50335491e-01f,+1.49816111e-01f,+1.87153630e-02f,
-1.12744503e-01f,+1.46896482e-01f,+7.37473071e-02f,+2.79972795e-02f,+1.47458613e-01f,
+1.31310448e-01f,-2.43042968e-02f,+2.11530998e-01f,-3.80673110e-02f,+3.85710560e-02f,
+1.66753173e-01f,-1.54788997e-02f,+2.31435657e-01f,-8.70002508e-02f,+1.03984505e-01f,
-7.15194419e-02f,-1.72247544e-01f,-1.48005113e-01f,+1.24964421e-03f,-1.56542346e-01f,
-1.46770794e-02f,-6.25988171e-02f,+4.00337987e-02f,+7.19442312e-03f,+5.65825067e-02f,
+1.52337164e-01f,+1.40723705e-01f,+4.54628840e-04f,+1.21006623e-01f,+1.71490967e-01f,
+9.82214659e-02f,+2.95495950e-02f,-2.27487415e-01f,+1.15803564e-02f,-2.21613690e-01f,
-1.61566570e-01f,-1.38582811e-01f,+1.43742666e-01f,-1.40586630e-01f,-1.32953435e-01f,
-1.91637591e-01f,+1.18151605e-01f,-1.66731421e-02f,-5.99882677e-02f,-4.32876572e-02f,
-5.72288893e-02f,+1.50301218e-01f,-1.69307232e-01f,-2.38748733e-02f,+2.42531806e-01f,
+1.53135896e-01f,-5.85721759e-03f,+1.14743285e-01f,-2.32870594e-01f,-1.11034311e-01f,
-1.07285395e-01f,-2.09903568e-02f,-1.42526552e-01f,-8.50454047e-02f,+3.08570415e-02f,
+5.37784025e-02f,+1.55938417e-01f,+2.19461888e-01f,-1.98317885e-01f,-7.26706758e-02f,
+7.04023317e-02f,+1.42753020e-01f,+1.26212701e-01f,-1.09081306e-01f,+4.70353663e-03f,
+1.58762008e-01f,+5.01072593e-02f,-3.39445323e-02f,+1.23570614e-01f,+1.23375459e-02f,
+8.68426934e-02f,+1.12274185e-01f,-7.18071684e-02f,-1.39758512e-02f,+1.91846117e-01f,
+6.76050335e-02f,-6.36355858e-03f,-2.76237242e-02f,-4.26642559e-02f,-8.68287012e-02f,
+1.05663184e-02f,-5.13428599e-02f,-1.76235676e-01f,-1.99979618e-01f,-5.00428304e-02f,
+2.50237167e-01f,-1.27986923e-01f,+1.33441575e-02f,-7.09070712e-02f,+1.25103503e-01f,
+7.88436159e-02f,-3.90312299e-02f,+1.59641042e-01f,-1.13143489e-01f,-4.68715653e-02f,
+1.14010602e-01f,+1.11011885e-01f,-1.79172680e-02f,+2.04919294e-01f,+1.71198919e-01f,
-1.41344503e-01f,+1.80237114e-01f,-2.02629879e-01f,+1.19265936e-01f,-1.96488619e-01f,
-1.37929758e-02f,-2.23394200e-01f,-1.18237317e-01f,+1.77668437e-01f,-6.99457899e-02f,
-1.14918470e-01f,-7.84982741e-02f,+2.12723076e-01f,-6.32570013e-02f,-5.86522259e-02f,
-2.07248181e-02f,-9.11504105e-02f,+8.71735066e-02f,-8.46894458e-02f,+1.68292388e-01f,
-5.65818697e-02f,+8.45897347e-02f,+1.44153893e-01f,-6.86086640e-02f,+5.89464838e-03f,
-7.68843517e-02f,-1.65441677e-01f,+1.27619773e-01f,-1.59359932e-01f,-1.15968816e-01f,
+1.20267846e-01f,+1.79542705e-01f,-8.87829661e-02f,-1.71637520e-01f,+1.77412614e-01f,
+5.18906973e-02f,-1.25583604e-01f,-1.98246211e-01f,+2.12457299e-01f,+1.58240706e-01f,
-1.04207695e-01f,+1.15266934e-01f,+2.04484567e-01f,-7.05364421e-02f,+1.55951709e-01f,
+3.00128255e-02f,-1.83216497e-01f,+1.88758954e-01f,+9.07299668e-02f,+2.72987764e-02f,
+1.61868170e-01f,-1.78824022e-01f,+4.05659266e-02f,+8.71184543e-02f,+1.27492711e-01f,
-1.69891372e-01f,-1.76871903e-02f,-1.60679072e-01f,-4.22639996e-02f,+1.14475667e-01f,
+1.64461926e-01f,+2.54402906e-01f,+1.26161620e-01f,+2.19343886e-01f,-1.51788116e-01f,
+9.45627615e-02f,+1.35729462e-01f,+1.01068936e-01f,+6.60343245e-02f,-1.26039058e-01f,
-5.98040409e-03f,-1.65048074e-02f,+1.51686966e-01f,+2.58740842e-01f,-9.74077284e-02f,
+6.70249388e-02f,-3.91516611e-02f,-7.23872334e-02f,-1.51209325e-01f,+1.56031594e-01f,
-5.71959764e-02f,-1.54991582e-01f,-2.40462851e-02f,+1.16486587e-01f,-4.49229814e-02f,
+2.61709899e-01f,-3.96260954e-02f,+3.55451042e-03f,-1.84149042e-01f,-1.66470427e-02f,
+1.66227594e-01f,+6.67107627e-02f,-3.49360406e-02f,+7.05665424e-02f,+9.31530893e-02f,
+1.29605725e-01f,-2.18299627e-02f,+9.11143422e-02f,-3.85179259e-02f,+1.70476437e-01f,
-1.65209860e-01f,+3.64372134e-02f,-6.09432682e-02f,+1.34549767e-01f,+1.43137455e-01f,
+1.81313634e-01f,-2.27807835e-01f,+3.13700549e-02f,+1.36301041e-01f,-9.95021462e-02f,
-5.78823267e-03f,-1.55284805e-02f,-1.51821360e-01f,+2.49541253e-01f,+1.93664342e-01f,
-1.31903231e-01f,+1.68043539e-01f,+3.41224857e-02f,-6.50611669e-02f,-1.44088104e-01f,
+9.07322466e-02f,+7.24628568e-02f,+5.03988704e-03f,+6.14374094e-02f,+2.83731073e-02f,
-1.53475434e-01f,-1.21161625e-01f,+4.38947342e-02f,+1.89970240e-01f,+3.53601687e-02f,
+1.38933048e-01f,-1.61659658e-01f,-1.33221895e-01f,-1.88698187e-01f,-1.87138349e-01f,
-2.42047921e-01f,+1.19211413e-01f,+1.00612439e-01f,-1.29783615e-01f,-1.36809379e-01f,
+5.66963553e-02f,-1.52729362e-01f,-1.83413193e-01f,-5.34120202e-02f,-4.75204997e-02f,
+1.92775682e-01f,+1.60690218e-01f,-5.92762940e-02f,-8.84342492e-02f,-6.73067942e-02f,
-2.48993456e-01f,-5.91377020e-02f,+1.32627457e-01f,-7.45418891e-02f,+1.14933789e-01f,
-1.37164861e-01f,-2.01427415e-01f,-2.18762621e-01f,-1.26525015e-01f,+9.49320346e-02f,
-3.69444340e-02f,-6.77663013e-02f,-1.55627234e-02f,+2.14049280e-01f,-1.49455845e-01f,
-1.87228709e-01f,+1.22795492e-01f,-1.99701235e-01f,-7.51142800e-02f,-2.13997841e-01f,
+2.41687130e-02f,+5.57614006e-02f,+8.44864398e-02f,-1.65718868e-01f,-2.44318899e-02f,
+6.77229241e-02f,+1.02977931e-01f,-8.51838365e-02f,-1.91604599e-01f,-6.09283447e-02f,
+2.15503544e-01f,-2.11445063e-01f,-8.60702395e-02f,+2.08437949e-01f,+1.13674998e-01f,
-1.79987818e-01f,-1.13803092e-02f,-2.22535923e-01f,+1.26588956e-01f,-1.78686380e-01f,
+1.66869089e-01f,-1.12138897e-01f,+9.55151320e-02f,+2.15547830e-01f,-1.95647925e-01f,
+7.22025260e-02f,+1.70052692e-01f,+4.65541184e-02f,-1.23850785e-01f,-6.14999756e-02f,
-1.42582625e-01f,+2.91514304e-02f,-7.33174086e-02f,+1.51095152e-01f,+1.98306978e-01f,
-1.82832748e-01f,+1.55704305e-01f,-7.58863688e-02f,+7.01212212e-02f,-6.28016293e-02f,
+1.48905337e-01f,+2.20530525e-01f,+3.95659916e-02f,+1.76934466e-01f,+3.96027579e-04f,
+1.45162836e-01f,+9.72189680e-02f,-1.78027704e-01f,+2.89768316e-02f,-1.50417477e-01f,
+7.56464452e-02f,-2.20757201e-02f,+1.01741798e-01f,+1.07068866e-02f,-6.05338663e-02f,
+6.35175183e-02f,+1.39954850e-01f,+2.67472118e-04f,-9.00926962e-02f,-8.33302289e-02f,
-1.25350319e-02f,-1.70572966e-01f,-1.25238240e-01f,+2.20731542e-01f,-1.56794444e-01f,
-1.04531102e-01f,+2.92924400e-02f,-6.08073547e-02f,-2.04381108e-01f,+1.23260908e-01f,
-1.83362678e-01f,-5.90370633e-02f,-5.46889678e-02f,-4.38878275e-02f,+2.54566699e-01f,
-7.55792856e-02f,-2.02956125e-01f,+1.45695303e-02f,-2.76238583e-02f,+1.82232186e-01f,
-1.04161605e-01f,-1.69495940e-01f,-1.15977861e-01f,+1.12540036e-01f,+1.09566733e-01f,
-6.60101175e-02f,-1.38091564e-01f,+1.32598802e-01f,-8.08515698e-02f,+3.00845709e-02f,
+1.71901137e-01f,+3.99878211e-02f,-3.08471341e-02f,-3.61682475e-02f,+1.94885999e-01f,
+1.57108918e-01f,-4.68412191e-02f,-9.98904705e-02f,+1.53222248e-01f,-3.52764726e-02f,
+2.19698131e-01f,-8.55915993e-02f,+2.01704308e-01f,-5.01589328e-02f,-1.53789073e-01f,
+2.26467788e-01f,+2.60255001e-02f,+2.44420305e-01f,-1.30580701e-02f,+1.52606785e-01f,
+1.84738822e-02f,-1.60462037e-01f,-1.94720909e-01f,+8.84441845e-03f,+1.34687707e-01f,
+2.16439769e-01f,+1.12808101e-01f,+2.10089311e-01f,-1.32109463e-01f,+1.29556224e-01f,
+3.82203236e-02f,-6.83292598e-02f,-1.91223279e-01f,+6.26014769e-02f,+1.19671598e-01f,
-1.19397856e-01f,-1.28960535e-01f,-1.05074167e-01f,-1.44680649e-01f,-8.25022087e-02f,
+9.44085866e-02f,+1.75541520e-01f,-1.82676375e-01f,-1.07691213e-01f,-1.01974830e-01f,
-1.58042923e-01f,+1.29387319e-01f,+2.52169877e-01f,+6.19741939e-02f,-1.02718376e-01f,
+1.10488981e-01f,+1.72550812e-01f,-1.20678544e-01f,+1.23439893e-01f,-2.03521132e-01f,
-1.74542591e-01f,+1.85454145e-01f,+2.58022975e-02f,+5.35473078e-02f,-1.13517910e-01f,
+2.07277551e-01f,+1.29665568e-01f,+1.57855913e-01f,-5.52778430e-02f,-1.94320694e-01f,
-9.57891252e-03f,+5.90685606e-02f,-1.02633961e-01f,-2.81683784e-02f,-1.75763741e-01f,
+5.29268719e-02f,-5.08310571e-02f,-1.61147445e-01f,-7.29322582e-02f,+1.32180182e-02f,
-1.20527998e-01f,+1.55992538e-01f,+3.01346183e-04f,-1.56062305e-01f,-2.29263350e-01f,
-2.14352086e-02f,+3.51667888e-02f,-1.34012938e-01f,+1.15196466e-01f,-1.62234288e-02f,
-5.16425371e-02f,-9.88680497e-02f,-5.94152808e-02f,-1.58782169e-01f,+1.05637029e-01f,
-1.54066816e-01f,+1.14122227e-01f,-1.35256484e-01f,+1.85161516e-01f,-6.70104127e-05f,
+1.41647235e-01f,+1.99598372e-01f,-4.39881571e-02f,-3.84964608e-02f,-1.27596259e-02f,
-4.86169420e-02f,-1.48780160e-02f,+1.49795607e-01f,-8.93992335e-02f,-5.35781682e-02f,
-1.75717726e-01f,+1.16404360e-02f,+1.35075152e-01f,+2.35189814e-02f,-1.48733124e-01f,
-1.53608605e-01f,+9.59770158e-02f,-6.86962456e-02f,+1.60281762e-01f,-1.13527790e-01f,
-1.52995316e-02f,-9.27602202e-02f,+1.42992273e-01f,+1.82766125e-01f,+1.58511862e-01f,
-8.95510614e-02f,-5.28515019e-02f,-7.19011128e-02f,+1.21508114e-01f,+2.60697991e-01f,
